#ifndef DENSE1_WEIGHTS_H
#define DENSE1_WEIGHTS_H
#include <pgmspace.h>

const float dense1_weights[100352] PROGMEM = {
0.06735996,-0.01286308,0.17975220,-0.31800935,-0.25623408,-0.01682067,0.04187383,-0.42027748,-0.23723333,-0.13631716,
0.02737696,-0.13094138,-0.12071317,0.05956648,-0.10979941,-0.06678600,0.03939240,0.01531249,0.20161279,-0.03161416,
-0.10489049,0.03137795,-0.03159385,-0.02621471,0.05065342,0.17234720,-0.00625817,0.19735472,0.02485848,0.16635920,
0.01823092,-0.01217821,-0.04034760,0.07304921,-0.13359243,0.29695034,0.04800528,0.07504154,-0.34830502,-0.06193732,
-0.07548819,-0.05278070,-0.10470117,-0.02854853,0.00037385,-0.01887052,0.09406188,0.11993405,-0.10144441,0.02667937,
0.12796286,-0.09292962,-0.16208977,-0.06116393,0.40074652,0.07977312,0.32388479,-0.05458673,0.21553884,-0.11138257,
0.02383204,0.04178748,0.11060658,-0.17477246,0.13717158,0.06186304,0.10091799,-0.00502436,-0.02698400,0.06310651,
-0.12349071,-0.06951759,0.08599348,0.05337192,0.03575952,0.10310496,0.02293093,0.00750712,-0.12045919,-0.04412114,
0.16186321,-0.24395862,-0.08720732,-0.06630643,0.27722219,0.06993308,0.11421704,0.02232029,0.04227436,0.00114894,
0.06507326,-0.00022160,-0.05157962,0.12764439,0.00960630,-0.05011059,0.05933891,-0.23355791,0.12728591,0.07946844,
-0.01416960,0.19421850,-0.00753045,-0.06375149,-0.15292521,-0.04243701,0.00366293,0.07790329,-0.12433687,0.38418382,
-0.08386935,0.27716413,0.18226022,0.12315360,-0.05934256,-0.06787780,0.29209447,0.06781952,-0.10193481,-0.06873044,
0.35746962,-0.34740496,0.02121764,0.17104043,-0.06538716,-0.10385190,0.34717774,-0.24363501,-0.11688016,0.01392630,
0.09574079,0.14253740,-0.43849087,0.04691837,0.08947072,0.37412587,0.36412969,0.12018009,0.18881653,0.07968152,
0.09887092,0.15617786,-0.19705245,0.04787064,0.06642019,-0.16829774,0.24626523,0.19910313,-0.17470858,-0.07084112,
-0.13513458,0.03429984,0.01590471,-0.16242282,-0.00317482,-0.05290371,-0.06778992,0.27364796,-0.01381908,0.19415621,
0.05494234,-0.10115457,-0.26807579,0.15725107,0.15887396,0.06160219,0.43963343,0.06601834,0.11401805,0.05460847,
-0.13372289,-0.06340741,0.05979919,-0.21275894,-0.01108203,-0.22937314,-0.34637007,0.03781537,-0.11914442,-0.10259353,
-0.29021105,0.03746919,0.19385174,0.03287177,-0.08576191,-0.31323901,-0.07126501,0.28584298,-0.23126727,-0.04931614,
-0.00564516,-0.11640559,0.08979461,0.06980255,-0.08292215,-0.02400897,0.12920024,-0.03054150,0.08556072,0.05767974,
-0.17497624,0.16094528,-0.17997621,-0.15375412,0.04050034,-0.13843878,-0.13222557,-0.03932263,0.13909991,-0.11161835,
-0.05186568,-0.10003914,0.20007588,0.00055598,0.06682166,-0.07039310,-0.17289013,-0.11753004,-0.03059441,-0.14237361,
0.26417276,-0.10047437,-0.09393970,-0.27740464,-0.14012642,-0.04168746,-0.04569282,0.07483048,-0.24651812,0.18868694,
-0.08093865,-0.13010034,-0.09097670,-0.05235351,-0.03177191,-0.02803389,0.31777233,0.13039388,0.05011353,-0.01411665,
-0.22069842,0.00092615,-0.02952818,0.00190579,-0.27244967,0.08804211,0.11489978,-0.05124602,0.21348636,0.24390790,
-0.29738113,0.18443955,0.10505746,-0.01696261,0.02157743,-0.21426539,-0.04958170,-0.06321029,0.39543959,-0.07091492,
-0.22542763,-0.02233453,-0.06696115,0.05120537,0.24882279,0.25707540,0.12038274,0.44478467,-0.44669259,-0.03098956,
-0.01075534,0.00225303,0.00714007,-0.12288934,0.07986490,0.35560071,-0.33808148,-0.11281905,-0.23364091,-0.02899233,
0.05232113,-0.33516464,-0.08390599,0.21042646,0.01248830,0.33473381,-0.03642926,-0.38959369,0.04356561,-0.31685066,
-0.42497131,-0.03922641,0.01809990,0.01177234,0.01659496,0.00597316,0.09414522,-0.03700095,-0.33041668,-0.00470674,
0.03466219,-0.20472555,0.02838165,-0.27412495,-0.04296398,-0.02933341,-0.35284275,0.02006504,-0.22906500,-0.19167683,
0.29133919,-0.05714311,0.56928939,-0.31608668,-0.09677113,0.00960354,-0.21177554,-0.04258128,0.29616469,-0.11156668,
0.16233043,-0.04025188,0.01093038,-0.18703839,-0.04535677,-0.10707982,0.27751935,-0.02286069,-0.24329261,0.37654456,
-0.35371727,-0.25246140,-0.03405314,-0.17479046,-0.25692630,0.04529848,0.38226146,-0.29145730,-0.24857557,-0.21978463,
0.15580328,-0.15042982,0.26703617,-0.19397593,-0.12119345,-0.01285574,0.00783946,-0.22883263,0.28628325,-0.20410343,
0.02789111,-0.19645329,-0.07503186,-0.08948265,-0.37917081,-0.06747603,0.07520558,0.02833412,-0.08653285,-0.03413345,
-0.25683588,-0.23470086,-0.11362022,0.02226672,0.07887954,-0.07842508,0.14596471,0.00524327,0.35966811,-0.04204758,
-0.33128953,-0.16508350,-0.36348000,-0.13228509,0.09811468,-0.04997427,0.34720534,0.26576141,-0.16074423,0.05976395,
0.05728833,-0.07244347,-0.24928603,-0.30650350,-0.17277397,-0.09296114,0.09272622,0.36150986,-0.14748430,0.04675225,
-0.14026606,0.02349733,-0.19528489,0.19293433,-0.09765691,0.04463086,0.02466955,0.00511775,-0.05392269,0.07914151,
0.06513318,-0.03158561,-0.14804140,0.01353784,-0.34320551,-0.19173153,-0.27796951,0.05632381,0.02071813,-0.02115943,
0.10880658,-0.18536980,0.04606851,0.21582922,-0.38012522,0.10889393,0.15505332,-0.51369166,-0.35411906,-0.10706104,
0.12134134,0.14188154,0.09776150,-0.05816964,0.04158903,-0.03240008,0.05463425,0.06157304,0.06737799,-0.37887257,
0.06723101,-0.34958747,-0.07772473,-0.05531536,0.25594816,0.13863868,0.36063993,-0.05009324,-0.35655832,-0.02123276,
0.04756150,-0.51113772,-0.06370219,-0.09058196,0.01988593,0.11426261,-0.06305549,0.05307326,0.18721060,-0.01937131,
-0.11541499,-0.28848535,-0.05080695,0.00950780,0.01591692,0.04658806,-0.08798660,0.23092578,-0.38389730,0.03283210,
0.01087037,-0.20296292,-0.18924356,-0.00562773,0.07423133,0.00835888,-0.26392144,-0.10232202,0.23507191,-0.16475654,
0.11430326,-0.22683756,-0.14583354,0.23586698,0.03339535,-0.16545685,0.34820345,0.21925397,-0.08948017,0.45947054,
-0.19418004,0.37982979,-0.38568839,-0.04762140,-0.12449070,-0.19627075,-0.20042337,-0.03360657,0.08762006,0.02027400,
-0.02277038,-0.07977037,-0.04254314,0.22700226,-0.14745077,-0.24555528,0.00486546,0.12510896,-0.31391326,-0.21567155,
-0.39360696,0.00652982,0.15893923,-0.02035413,0.00632715,-0.01828359,-0.16764317,-0.15228866,-0.16597649,0.06328063,
0.16933466,0.09468663,-0.12443195,-0.11384828,-0.03016830,-0.28966820,-0.19523066,-0.05292179,-0.11795633,-0.62839621,
-0.57835096,0.11101293,0.01981372,0.08724613,-0.24756360,0.20568700,-0.44613740,-0.00866570,-0.03400058,0.23647340,
0.62709868,0.17066099,-0.29461905,-0.00611762,0.37663823,0.05492469,-0.00364285,-0.08789513,0.05841692,0.57150739,
-0.13257842,0.37148759,-0.26256555,0.11374214,-0.03526026,-0.65871441,-0.58411872,0.00387545,0.31059828,0.16869490,
-0.32176974,0.09935223,0.24487211,0.06324469,-0.10885274,-0.01111052,0.05314830,-0.59105814,-0.08473736,-0.12779951,
-0.32561111,-0.09504931,-0.11337875,-0.14058219,-0.02345856,0.16063838,-0.15294543,-0.03382000,0.09444524,-0.78342688,
-0.12111649,-0.18688767,0.06648573,0.02955675,-0.60851890,-0.36938235,-0.03282293,0.08585886,0.20166224,-0.36585042,
0.11344352,-0.21594644,0.17726828,-0.01870453,-0.37799859,0.46866202,-0.39814112,0.11539060,0.06104801,0.07619651,
0.18774734,-0.11897416,0.09010702,-0.22740081,-0.23064138,-0.07883200,0.27881187,-0.06832425,0.04377621,-0.50504309,
-0.08484349,0.25836277,-0.07502806,0.09303409,-0.04329898,-0.24168016,0.39314291,-0.03746045,-0.22875285,0.13511042,
-0.28338253,-0.07735743,0.23468716,-0.00471223,-0.06734078,-0.26587003,0.09330603,0.23603961,-0.11850706,-0.09310744,
0.39597806,-0.32829583,-0.07453550,0.16100377,0.62269312,-0.08022733,0.08728427,-0.09193669,0.03129191,0.61707717,
-0.51332760,-0.03144118,0.27862281,-0.35615531,0.06564565,0.01327325,-0.20880479,0.33568859,0.11632468,-0.00623465,
-0.02252439,-0.12368793,0.15818971,-0.39193073,0.18009919,-0.05498246,0.00206995,-0.76404268,-0.63210529,0.26088172,
0.29903030,0.15700300,-0.08214228,-0.27790454,-0.64405590,0.01763645,-0.03667555,0.30732477,0.37674510,0.00762091,
-0.33104578,0.02013781,0.37023190,-0.07076295,-0.03980605,-0.07375500,-0.06917112,0.47936046,-0.47615889,0.40728596,
-0.34641755,0.28776458,0.14574525,-0.56569868,-0.51467353,0.07340474,0.10284307,0.06447801,0.10565293,0.11618922,
0.26368260,0.00131010,-0.00285073,0.00394027,0.06183761,-0.27120104,-0.21636018,-0.25198159,-0.38074380,-0.10648610,
0.14121149,-0.63985544,0.00330244,0.10691372,-0.11703070,0.02818102,0.06292503,-0.51644969,-0.34133449,0.05558727,
0.54599792,0.02495340,-0.55967540,-0.33106095,-0.39649972,0.15503824,0.31364036,-0.06034147,0.05771637,-0.31456861,
0.24107695,0.01820754,-0.38048473,0.31450155,0.03315917,0.22545846,-0.09499621,-0.00495003,0.08633215,0.01908970,
0.10209998,-0.13115877,-0.11767405,-0.28310120,0.18797919,0.15985040,-0.20088756,-0.31042153,0.07761761,0.29098448,
-0.03235174,0.26218835,-0.49178353,0.05891645,0.30633599,-0.25532389,-0.19482569,-0.04267189,-0.51009476,-0.05795765,
0.47218552,-0.16485274,-0.09951102,-0.15894613,0.06167741,0.43489778,-0.17034735,0.01876963,0.56944400,0.14495251,
-0.17315264,0.03757811,0.57489628,-0.10110398,-0.24196675,0.01518950,0.24515550,0.12600562,-0.78896499,0.02568499,
0.56732523,-0.34995082,0.13514422,0.31796399,-0.19511944,0.45820943,0.57774657,-0.09295879,0.01561073,-0.04723319,
0.17082341,-0.47998974,0.30616078,-0.00082012,-0.07379982,-0.54120255,-0.50684059,0.22302017,0.51971662,-0.05836334,
0.23143873,0.14638114,-0.45228502,-0.03105295,-0.04123848,0.22805876,0.07498877,0.12875572,-0.18169065,-0.03929445,
0.27794704,-0.08391022,0.02137764,-0.04278203,-0.03659297,-0.35042015,-0.37875399,0.88561511,-0.41355234,0.63026142,
-0.10055719,-0.24729568,0.05767886,-0.43008107,0.14357953,0.04630042,0.37259659,0.01957188,0.29035929,-0.08051820,
0.13297646,0.01723758,-0.06285520,-0.20719717,-0.26851177,-0.08934113,-0.70904768,-0.13403545,0.17172855,-0.79810590,
-0.62862360,0.10201236,-0.21152712,0.07980723,-0.43287003,-0.44545850,-0.35112542,0.26790783,0.18259065,0.08568485,
-0.49730065,-0.25014541,-0.83950996,0.22944707,0.06174499,0.05392562,0.18831411,-0.05154971,-0.05702250,-0.03527341,
-0.45629546,-0.13293338,-0.21822143,-0.02792975,-0.07046232,0.36183253,-0.03670420,-0.01598723,-0.36352766,0.38443369,
-0.09194045,-0.21302333,0.22341564,0.23142506,-0.53915292,-0.30571368,0.04241096,0.28124148,-0.06547119,0.01466648,
-0.48185804,0.52573407,0.45077503,-0.45222372,0.25193882,-0.37269959,-0.34747365,0.08076460,-0.05358916,-0.17469212,
-0.15485768,-0.00511628,0.44527492,0.57099962,-0.09475598,-0.17243159,0.15365538,0.54216039,-0.59708786,-0.03340270,
0.18550397,-0.17316724,-0.19614680,0.06475914,0.03103680,-0.10276701,-0.51894015,-0.05957276,0.01578266,-0.37700799,
-0.30980569,0.16854753,-0.36669087,-0.42211917,0.59486824,-0.12202359,-0.19436163,-0.08584096,0.18854979,-0.32289526,
0.35563007,-0.04223753,0.12581499,-0.56108463,-0.20049983,0.27226487,0.21106900,0.04051662,0.20440401,0.19318499,
-0.25789097,-0.08236357,-0.04689337,0.26677340,0.22745712,0.10075334,0.00523543,-0.07848427,0.28385559,-0.03398002,
0.05780592,-0.07400920,-0.13009825,0.20095943,-0.25654471,0.59625179,-0.02493238,0.45842174,-0.07392014,0.04348632,
-0.00369767,-0.12097881,0.38183990,0.15404817,0.09441704,-0.09579226,0.13144207,-0.01627492,-0.13393502,0.04447763,
-0.05862024,-0.61408705,-0.16272101,-0.47221613,-0.70360309,0.06108706,0.15553758,-0.29175973,-0.23574579,0.00907339,
0.42562220,-0.06499460,-0.07668596,-0.04292011,0.33399564,-0.06000491,-0.12015928,-0.12045898,0.14767918,-0.04070473,
-0.73700255,0.25169334,0.32647961,-0.16794856,0.40872619,0.17960323,-0.06699834,0.01700269,-0.00996749,-0.26311427,
-0.66330767,-0.04203041,0.01456568,0.46387342,0.14131589,-0.11092227,-0.17317398,0.41767403,-0.18120040,-0.07351115,
0.27338240,-0.00045927,-0.28927752,-0.41727132,-0.55086112,0.23643894,0.01284539,-0.30580774,-0.58834511,0.26199579,
0.39133590,-0.01717881,0.43572152,-0.20739804,-0.15553617,-0.02242936,-0.31240103,-0.23991522,-0.31279257,-0.03947131,
0.67577618,0.27414653,-0.10241310,-0.16994277,-0.18171571,0.66071308,-0.74004084,0.30384830,0.11890485,-0.28731209,
-0.84963500,0.33693066,-0.16010338,0.02952294,-0.24389738,-0.09200908,0.21744059,-0.03788099,-0.29199892,-0.16642906,
-0.45080155,-0.57200146,0.21272054,-0.06152952,-0.11994035,-0.00017918,0.25995541,0.20800512,-0.05328324,0.06946701,
0.05774165,0.15749748,0.42397997,0.19810927,-0.13063875,0.40441108,0.07656401,-0.53199738,0.24696450,-0.05121124,
-0.07507401,0.05177029,-0.02730596,-0.03459698,0.03297991,-0.03473496,0.07984852,-0.02337682,0.00647448,-0.13618433,
-0.24736382,0.26603946,0.02568023,0.04710701,0.12551120,0.19364110,-0.02253756,-0.22197065,0.01974750,0.00920565,
0.64557219,-0.04421111,-0.09037694,0.01138085,0.13156180,-0.04976487,-0.32654065,-0.02362261,0.03764131,-0.85460144,
0.08378272,-0.68996602,-0.60868984,-0.03672995,-0.04723222,0.39293960,0.36969447,-0.17510521,0.24984524,0.04713487,
0.32894716,-0.16731083,0.34583604,-0.11951946,-0.08189135,-0.04860608,0.19233342,-0.14278509,-0.07066467,-0.07537667,
0.23331420,0.04340988,0.51269478,0.20226790,-0.24233294,0.05110372,0.11841350,-0.13130938,-0.36012474,-0.33570746,
0.04553401,0.46000573,0.43884999,-0.00872198,0.12959291,-0.15397723,-0.20809031,0.08834496,-0.08769231,0.03460642,
-0.01434666,-0.30740201,-0.20573820,0.08682748,0.05578568,-0.45850757,-0.09725945,-0.12389451,0.18271799,0.72139496,
0.06905425,0.24771258,-0.53854805,-0.03898082,-0.17043702,0.05472327,-0.33727655,0.06441419,0.40170935,0.13249552,
-0.29695711,-0.12309430,-0.01594773,-0.04946423,-0.62889218,0.28321984,-0.23456025,-0.52465355,-0.50763685,0.28660947,
-0.51722509,0.38394484,-0.08310284,-0.07009968,0.40613616,0.07394622,-0.17577261,-0.09090602,-0.82449734,-0.14868988,
-0.35805359,-0.25055256,-0.09869790,-0.15846889,0.34865487,-0.04734544,-0.01280627,-0.06093450,-0.10853066,0.01994826,
0.43788591,-0.08671485,-0.04690836,0.46145442,-0.13510382,-0.71916938,-0.15514502,0.05289439,0.02042063,0.13168177,
0.06777744,0.09490947,0.02028113,-0.08417397,0.23410317,-0.04495793,-0.06105861,-0.22395353,-0.46627736,0.36769491,
-0.29800612,0.03793560,0.28758857,0.15463226,-0.01507287,-0.20659991,-0.26089513,0.24922222,0.31058803,0.00170204,
0.00354382,0.15146108,0.20691799,0.05761123,-0.45383114,-0.08376057,-0.06569911,-0.63827121,0.06258361,-0.40336728,
-0.50372553,-0.03507819,-0.56690121,0.35317135,0.33779633,0.11890565,0.35089523,0.09816670,0.24720837,-0.71200937,
0.47125030,-0.07761187,-0.02535214,0.02535657,0.21347612,-0.21243630,0.43639201,-0.01629267,0.25825590,0.27386054,
0.28935966,0.24432789,-0.04917387,0.04675131,0.47733316,-0.13241783,-0.40663952,-0.29454368,0.05116906,0.17042993,
0.40122193,-0.04326819,0.08060679,-0.34759143,-0.01151072,0.17134152,0.20877247,0.00347186,0.13694327,-0.12339899,
0.20912154,-0.07070851,0.04033522,-0.52942580,-0.20314148,-0.13375793,-0.06292432,0.26681629,0.00699761,0.15425435,
-0.24997273,-0.08132458,-0.08161273,0.05980954,-0.30641064,-0.04928228,-0.15432732,-0.06462017,-0.28404024,-0.11907451,
0.21467453,-0.35020927,-0.32302436,0.35882747,-0.60332692,-0.26626095,-0.16982999,0.10865773,-0.34118235,0.16529705,
-0.34920746,-0.06378779,0.28842148,-0.25869966,-0.48247382,-0.08994717,-0.37593850,-0.02018192,-0.08014283,-0.26042747,
0.09447355,-0.18203247,0.41531199,-0.63689190,-0.11618233,0.05512365,0.01737602,-0.21896248,-0.06709465,0.24687210,
-0.24718510,0.11766756,-0.50482500,-0.28248841,-0.24345663,-0.06631104,-0.08566620,0.58141184,0.41739959,0.31489080,
-0.17767715,0.06938755,-0.02681942,-0.11319622,-0.03944921,0.17313603,-0.49657965,0.64670891,-0.36172119,0.42039013,
0.47613925,0.40302041,0.53016770,-0.04127743,-0.33452883,0.11120754,0.39450148,0.08220638,-0.26692891,-0.07367710,
0.64274824,0.04855531,-0.43021378,-0.04013327,0.00486126,-0.53300297,0.47342142,-0.37000903,-0.43156689,0.02849244,
-0.80021369,0.23192304,0.06456176,0.17667583,0.55839306,0.03612339,-0.30079150,-0.39687443,0.36383975,-0.10462852,
-0.24240306,0.01655761,-0.06025919,-0.11220097,0.10020250,0.62380403,0.45473582,-0.19268914,0.02878310,0.70665455,
0.04970720,0.02214981,0.33677429,-0.38193578,-0.80845708,-0.29541087,0.04601644,0.24565077,0.38219970,-0.08759522,
0.01256003,-0.03838385,-0.10295556,0.47865978,-0.00111331,-0.16906793,-0.40153024,-0.62556499,-0.12259709,-0.26480675,
-0.04073634,-0.89012378,-0.50028718,-0.03555230,-0.14365241,-0.34702486,0.33063212,-0.14278144,0.09685154,-0.05426469,
-0.36239809,0.11595565,-0.16145301,0.02671381,-0.05932157,0.11677282,-0.19772698,-0.21497716,0.09330600,0.44508237,
-0.57651603,0.13294771,-0.84059298,0.04461865,-0.43229383,0.02082026,0.02866570,0.22598709,0.14996938,-0.01526645,
0.50280839,-0.05817055,-0.94258028,0.07339577,-0.10627897,0.08074556,0.06547052,0.18062966,0.22031140,-0.28663403,
-0.00037986,-0.31867307,-0.22805706,0.04079585,0.11710525,0.27678674,0.09475554,0.49221045,-0.01778394,-0.28293511,
-0.50564539,-0.23784949,0.10783789,-0.06431615,0.02129962,0.15242514,0.44248769,0.37452409,0.00240442,0.35609943,
-0.18691094,-0.01052944,0.05589873,0.21804309,-0.13164611,0.22654851,-0.27952251,0.27734101,0.33214799,0.39126569,
0.08383033,0.05307471,-0.02398953,0.06414647,0.19674790,-0.11440514,-0.49531630,-0.29989317,0.31983036,-0.06178131,
-0.06950188,-0.02661743,-0.03837801,-0.37225369,0.45265147,-0.15805395,-0.16373311,-0.12219857,-0.11230909,-0.02543410,
-0.12856144,-0.07148812,0.19760884,0.04253161,-0.32577482,-0.17934041,0.16341427,0.06279022,0.16855003,-0.05138038,
-0.16812679,-0.00813384,-0.16587399,0.41052598,0.04922636,-0.17812838,0.13867651,0.22035411,0.42982298,-0.04327005,
0.09023791,-0.07116184,-0.60869110,-0.06364469,-0.04923912,0.25486895,0.21586789,0.00686662,-0.17022204,0.10338891,
-0.44579965,0.22706500,-0.14466628,0.07454193,-0.19232899,-0.48907363,-0.41933715,-0.00117135,-0.00737895,-0.06084913,
-0.03323330,0.08154126,-0.18532360,-0.25212777,0.57575333,-0.02060119,0.25017738,0.01766041,0.21188788,-0.12689453,
-0.07690880,0.12099578,-0.21502303,0.29004830,-0.19108710,-0.09593236,-0.19456890,0.14517370,0.14458352,-0.18152046,
-0.04534705,0.55134666,-0.09386973,-0.00498092,-0.01900828,0.19461094,0.54732424,-0.00502739,0.51952350,0.08056513,
-0.27943459,0.38047618,-0.01305188,0.40129274,0.14287449,0.32293114,0.07402624,0.08030686,-0.04536851,0.04212981,
-0.20896414,-0.04628131,0.01286194,0.04890989,-0.17161772,0.41915631,-0.10748886,-0.55381930,-0.32874939,0.10841391,
-0.14686233,-0.02710558,0.00042963,0.00525881,0.15004279,0.09542295,0.09694277,0.14268379,-0.08170815,-0.05575393,
-0.02457981,0.07708251,0.04800395,-0.18180467,-0.08139339,-0.04842595,-0.03681264,0.15261537,-0.40546247,0.12552877,
-0.03074657,0.15662940,0.05257778,-0.16328134,-0.39575389,-0.15570718,-0.11333111,-0.05600401,0.17183670,-0.05134100,
-0.05889145,-0.14704274,0.03730198,0.14714731,0.27192742,-0.07716126,0.23490608,-0.04400542,-0.19481578,0.12927261,
-0.07038584,-0.01940063,0.10639515,-0.08249667,0.04281116,-0.01450196,0.19038621,-0.02562745,-0.13798106,-0.02879229,
0.20761158,0.07460489,-0.03123223,-0.09767453,-0.14083740,-0.43115172,0.68520665,0.04706292,0.06255840,0.18876942,
-0.10263061,0.20665285,-0.08131049,-0.01770935,-0.05415641,-0.07336991,-0.09112827,0.13191889,-0.25832462,0.05836236,
-0.09996737,0.20028457,0.13809159,0.04555279,-0.44873944,0.00583328,-0.00253811,0.59891772,0.03522660,-0.16328973,
-0.09968241,-0.18804954,0.54861617,-0.00012811,0.01928900,-0.07945605,0.56640261,-0.34154239,-0.03855884,-0.09717016,
-0.25212485,0.10434967,-0.19392513,-0.10219548,-0.00683884,-0.74412864,0.60067171,0.24641302,0.45031869,0.31491667,
0.19127561,-0.08547229,0.21188834,0.26933289,0.04554732,0.03147884,-0.05865240,-0.20146748,0.30367258,0.22278246,
0.25120825,0.19122274,0.36824018,0.21641099,0.01641079,-0.00587771,-0.29927793,0.12487660,-0.12381793,0.04366568,
0.41131580,-0.08356556,-0.21386884,-0.19695012,0.34292027,-1.17345107,0.17771161,0.19315843,-0.15570825,-0.09590608,
-0.03939106,-0.13916816,0.15397584,-0.26050913,0.11484403,0.18580742,-0.50683016,-0.05063072,-0.02116317,0.51175326,
-0.06517556,-0.63346642,0.35841811,-0.10251243,-0.17247738,-0.07453132,-0.27845907,0.35993156,0.38153422,-0.50596565,
0.09537351,-0.24703172,-0.16983408,-0.30416256,-0.15387306,-0.07841875,0.14047675,0.04899798,-0.08325597,0.39997697,
0.00547593,0.28661945,0.30018884,-0.02594029,0.05369769,-0.24408400,-0.27572313,0.19182120,-0.45285994,0.03243196,
0.07540692,0.57063258,0.00835538,0.16906935,-0.04714916,0.01132749,-0.31247300,0.22931390,-0.04007565,0.06413511,
-0.17224643,-0.22222725,-0.06887563,-0.64443463,0.27132607,0.01824710,-0.26001003,0.09235100,0.24901809,0.33703193,
-0.01292317,0.13981526,0.33213487,0.01428778,-0.31860837,0.54385769,-0.31092724,-0.11096019,-0.03314599,0.25117835,
-0.38411325,0.18067676,0.16905792,0.10716867,0.02000932,0.48908928,0.26182619,0.01070258,-0.07113547,-0.05790555,
0.46170551,0.13008232,0.14640249,-0.05691332,0.45779818,0.38114589,-0.09860377,0.19922209,-0.05108961,0.20692748,
-0.16088413,-0.13642530,0.26807299,-0.97252500,0.51211321,-0.09187204,0.14749280,0.17373060,0.17539412,-0.41278100,
0.16204324,0.25218233,0.08231490,0.03090804,-0.03011302,-0.29542562,0.02016252,0.23270020,-0.28625566,-0.13671274,
-0.00271599,0.29050130,0.08364578,-0.01858495,-0.33415410,0.27942288,-0.01198361,0.04111103,0.28162211,0.12637728,
-0.16263126,-0.29302195,0.33008051,-1.03999686,0.52982205,0.00198822,0.00100701,0.02656158,-0.01558486,0.02379841,
-0.05745971,-0.54197961,0.13466333,0.18513678,-0.55029368,0.00229414,-0.05275199,0.41929916,-0.09035484,-0.78781170,
0.48355445,-0.10292986,-0.03487231,-0.18716702,-0.35822141,0.33957419,0.38895044,-0.83525115,0.26649877,-0.27586901,
-0.02957553,-0.38046598,-0.18379197,-0.01788494,0.08862396,-0.03509587,0.04453961,0.58881158,0.18847993,0.19811812,
0.09084596,-0.10725633,0.31980789,-0.04134612,-0.26057512,-0.05768032,-0.59609091,-0.03880684,-0.05560377,0.97756034,
0.03865722,0.03832200,0.03580716,0.02317898,-0.33212960,0.24548051,-0.10686120,0.24564287,-0.31645596,-0.17631479,
-0.11782669,-0.64744282,0.26604870,-0.03342677,-0.32761836,0.00558362,0.41935468,0.42814592,-0.02990873,0.18891382,
0.43046460,0.00319977,-0.28399149,0.47588915,-0.45758963,-0.33503348,-0.23969492,-0.02297250,-0.50780755,0.15472849,
0.34675920,0.00070508,-0.05561424,0.41062889,0.32656726,-0.10071646,0.03138454,-0.01713342,0.39659649,0.35037288,
0.06881029,-0.02686993,0.33103713,0.30273357,0.12268343,0.36612618,0.04152535,0.18805642,-0.27007368,-0.08123655,
0.11228679,-0.97428989,0.29892847,-0.38351801,0.18873133,0.24554870,0.03160792,-0.40628502,-0.04120921,0.27077115,
0.08626239,-0.06960128,0.19650204,-0.11334252,0.11062558,0.36664870,-0.47726732,-0.09399778,-0.03552093,0.51483399,
0.08804878,0.10674185,-0.16625710,-0.05799704,0.07250849,0.03540736,0.18114477,0.14465438,-0.16647546,0.22731997,
0.18537523,-0.96022636,0.47788826,0.15411818,-0.18469875,-0.00865643,-0.05206898,0.04500644,0.16823620,-0.33005431,
0.11575892,0.39309257,-0.25085911,-0.10469971,0.06904266,0.14925526,0.08057432,-0.53483093,0.31215125,-0.00053997,
-0.23748110,-0.08891657,-0.47010696,0.26334211,0.09733629,-0.19201110,-0.07572687,-0.33239657,-0.26328081,-0.42326543,
-0.11757854,0.00493164,0.28849766,0.06009333,-0.06312238,0.20429939,0.01140944,0.30087519,0.31934479,-0.07977028,
0.34137747,-0.08738104,-0.17127724,0.02416315,-0.15039632,-0.03491474,0.10567030,0.59342563,-0.01213584,0.04340042,
0.04157648,-0.07482633,-0.36667386,0.05301715,0.07442337,0.05647750,-0.21653336,-0.11590594,-0.12842678,-0.54878461,
0.54160613,0.05419629,-0.07644579,0.27758861,0.05949316,0.23449801,0.04936260,0.01073832,0.13361131,0.02936662,
-0.20881556,0.12059759,-0.14324759,-0.18931049,-0.06235221,0.14672546,-0.10190728,-0.02818104,-0.11378583,0.06577928,
0.05008753,0.72599798,0.14523397,-0.21629885,-0.09879050,-0.18438485,0.34251115,0.14738981,0.07722983,0.05523795,
0.47941947,-0.04486072,-0.08496852,0.01699221,-0.18797641,0.14428847,-0.27985850,-0.19516417,0.12588538,-0.74241745,
0.41028723,-0.00546235,0.37471864,0.36787882,0.06370875,-0.17668681,0.28269804,0.23361984,0.02255123,0.00387874,
0.06266937,-0.12145850,0.38383958,0.27960140,-0.08349535,-0.04110546,0.34934187,0.22276779,0.21218689,-0.11325333,
-0.02523357,-0.25201824,-0.12728828,-0.01213272,0.19530427,0.47800937,0.10511611,0.79876858,0.18353125,-0.45013541,
-0.03861541,0.08515071,0.03259375,-0.01075202,-0.04256022,0.26281461,0.20810252,0.34004042,0.02392153,0.23670681,
0.29055846,-0.04208571,-0.08818375,0.18884590,-0.09823301,-0.48684099,0.23507810,0.40569156,0.01455989,0.40255591,
-0.14382847,0.43028954,0.23709233,-0.14187129,-0.00969896,-0.35980305,-0.36177528,-0.47458032,0.27515438,-0.04108576,
0.00048148,-0.06470456,0.06994231,0.05192797,0.19982791,0.09572499,0.24085261,-0.06748733,-0.15457292,-0.02026152,
-0.30886850,-0.06998995,0.00858137,0.02239876,0.08204310,0.10671509,-0.17675017,0.36354673,0.18918079,-0.01195296,
-0.09725230,0.13530618,0.13396515,0.22998752,0.01166755,-0.26173517,0.09555718,0.44642308,0.34449193,0.00528487,
-0.17030965,0.01399926,-0.33562577,-0.20380360,0.01969242,0.11414870,0.09725526,-0.01004134,-0.34150979,0.16104853,
-0.19154336,0.18727313,-0.11503179,0.38838109,-0.11821989,-0.08717319,-0.05906829,-0.12374655,0.07492893,0.16151288,
0.09300367,0.05443827,-0.21203855,-0.45244163,0.73860574,-0.09192712,0.34843275,0.03485288,0.31225243,0.14283720,
-0.14754026,-0.01701454,-0.18945539,-0.02971779,-0.13170940,-0.08717201,-0.09136917,0.04935793,0.17558639,-0.04241006,
0.05022565,0.73215568,0.06683654,-0.20452814,0.01241064,0.05311253,0.37116107,-0.03534209,0.23039217,0.28368828,
0.04144475,0.33956859,-0.08573477,0.07544324,0.16939978,0.31982267,0.18582068,-0.36444867,0.18069275,-0.50538117,
-0.20075199,0.02698898,0.07046232,0.31673196,0.26776844,0.65706897,-0.05914669,-0.07684378,-0.40689817,-0.20536800,
-0.10068826,0.04601695,0.05590562,0.26861906,0.32724082,0.52844977,0.09125328,-0.12888882,0.25669578,-0.01199480,
0.02099363,0.13410003,-0.27886125,0.18452935,0.07809204,0.33272496,0.14503786,0.53703773,0.24219795,0.46001574,
0.27787626,0.09019155,0.17753826,0.15523925,-0.44417146,-0.40005228,0.22327220,0.00569538,-0.11540759,-0.02457700,
-0.02868061,-0.13813996,0.27531007,-0.15683357,-0.20416653,0.03027319,-0.56405360,0.08668265,-0.27211806,-0.03807011,
0.28346661,0.00614326,-0.05835082,-0.08035456,0.07031114,0.17969228,-0.31714001,-0.16129558,0.03657536,0.12162589,
0.01656102,0.01265703,0.05072265,-0.31653252,0.08982310,0.59630787,0.14992447,0.02604915,-0.01151905,-0.28232813,
-0.55592328,-0.47426155,0.05054293,0.16662942,0.18468030,-0.06671292,-0.36999187,0.12693043,-0.08008128,0.12103427,
-0.06316001,0.17506208,-0.05750706,0.13023958,-0.07574631,-0.21672656,-0.08049366,-0.46048585,-0.05165868,0.09108980,
-0.21860185,-0.40908337,0.48156595,-0.29048780,0.24447456,-0.06286558,-0.16224401,0.19321859,-0.22139576,-0.06291600,
-0.14911593,0.01462717,-0.18537678,-0.05494159,-0.19094227,0.37951767,-0.04289383,-0.00334146,-0.47551307,0.51426280,
-0.10272502,-0.10726756,-0.12554881,-0.07489884,0.36561832,0.02141922,0.24864219,0.31324923,-0.56118637,0.19365397,
-0.28905067,-0.02258945,0.17169480,0.16705121,-0.12132208,-0.26764399,0.41673961,-0.24428333,-0.04765543,0.06669536,
-0.03546461,0.06894173,0.48695281,0.28975135,-0.07239641,0.13471781,-0.29270130,-0.31742084,-0.08284386,0.02788277,
-0.00903069,0.26733214,-0.01232605,0.46583414,-0.08757477,-0.14089687,0.12632936,-0.04294369,-0.00114534,0.14918552,
-0.41837829,0.18514057,0.11975080,0.14456695,0.27110279,0.14341767,0.16473967,0.19292043,-0.34236249,-0.05857346,
0.22714765,0.01654336,-0.13049571,-0.43290177,0.26729369,0.05044547,-0.17184119,0.02683224,-0.01534634,-0.17858696,
0.25364470,-0.34590429,-0.00858611,0.02025442,-0.45982441,0.13095684,0.06920780,0.24029087,0.20384651,0.09013210,
-0.04626295,-0.32033217,0.12403052,-0.04215525,-0.19230796,-0.01926738,0.01743878,0.16517146,0.13010459,0.44300500,
0.12297727,-0.24655978,0.14305842,0.41982809,-0.10536093,-0.03155259,0.30051842,-0.20380343,-0.33024767,-0.35149342,
-0.06772584,0.01513623,0.49689987,-0.07400309,0.06108069,-0.04823696,-0.07810681,0.03831202,0.16374406,0.10826854,
0.04528852,0.45005295,-0.07746954,-0.20072784,-0.05912550,-0.71373379,-0.35568699,0.14356560,0.13545960,-0.02267062,
0.08551555,-0.07164900,-0.10614044,-0.08738350,-0.20580782,0.38995147,-0.18870489,-0.07923569,-0.13007525,-0.03713616,
-0.25063014,-0.11936492,0.11008295,0.17628667,-0.35769650,0.03383831,-0.62755769,-0.18091862,-0.18581022,-0.25298727,
-0.28357190,-0.05971873,-0.11255562,-0.02309627,0.29064670,-0.09380092,-0.51538205,-0.12200937,-0.29572707,-0.02036615,
-0.18871380,-0.05325313,-0.10412420,-0.17709649,0.08890148,0.06307084,-0.11932193,0.05857787,0.50853282,0.16289841,
0.43114376,0.36892930,-0.10048052,0.11039265,-0.12648402,-0.40866262,0.20906316,0.00004324,-0.05715245,0.21786711,
-0.11953134,-0.05046706,-0.08621237,-0.14289370,0.37988192,-0.11928226,0.05803518,0.13834938,-0.33758727,0.17859975,
0.14733712,0.23086603,0.27755892,0.03784591,0.03407755,0.22372311,0.00495306,-0.33167267,0.70284092,0.03373643,
-0.33227420,-0.47578537,0.00098981,-0.02801950,-0.17644954,0.06394167,-0.07229861,-0.45041379,0.35521916,-0.73652643,
-0.23543033,-0.01482608,-0.26940072,0.52031803,-0.00334094,0.21337023,0.42420536,0.05636055,0.18102004,-0.36326054,
0.40177730,-0.05322201,-0.54808521,-0.04645259,0.18412802,-0.14874823,-0.31926569,0.33311892,0.21795559,-0.09984182,
0.71805406,0.00270684,-0.19309837,-0.01165101,-0.07654684,-0.29929322,-0.63235360,-0.39912325,-0.07550786,0.07742526,
0.82209611,-0.04811883,0.30038026,0.27688399,-0.03674034,0.17124504,0.04787822,0.01272380,-0.38131598,0.38019612,
-0.01072110,-0.22026823,0.05573786,-0.24387386,-0.08056819,-0.00082609,0.20656452,0.55655539,0.05965928,0.36034808,
-0.34372479,-0.03119991,-0.35273123,0.37732595,-0.14779630,0.03068516,0.21001370,0.51109046,-0.25032020,-0.05709359,
0.14756633,-0.06153023,-0.63664967,-0.01214661,-0.08884321,-0.08732771,-0.55109239,-0.32603639,-0.62695444,0.21774206,
-0.25713894,0.10558610,0.26325363,-0.01798036,-0.40178418,-0.33960506,-0.68447763,-0.56257516,-0.59512198,-0.05490778,
-0.07987966,0.02288504,0.11185551,-0.09603746,-0.40408733,0.00348516,0.65214324,0.18384951,0.34475982,0.43610594,
-0.06114233,-0.12593327,0.33856115,0.05120236,0.36460778,-0.02715111,0.06833576,0.19665268,0.12964600,-0.15107866,
-0.12329207,-0.03766351,-0.05746080,-0.08418910,-0.04133309,-0.05276374,-0.28473803,-0.13098547,0.55220884,0.29699710,
-0.02058688,-0.05329355,-0.15125547,0.36671191,0.07440997,-0.44297734,0.54776037,0.28815120,-0.05502383,-0.31774205,
0.32043329,-0.06146013,0.02190559,-0.06129545,0.05275751,-0.47501105,0.01602882,-0.97141260,-0.12575318,0.01933541,
0.01117792,0.44199017,-0.34329164,-0.32249936,0.50482178,0.02011642,-0.06251602,-0.00172215,0.33740619,-0.06780699,
-0.27226546,-0.10870010,0.15224034,-0.02424441,-0.49859631,-0.03743283,0.10868358,-0.32285526,0.55644858,0.00448094,
-0.15293919,-0.07568089,0.01047168,-0.36175576,-0.88034844,-0.44116372,-0.05427026,0.26172808,0.50429279,-0.07423642,
-0.09650182,0.46792340,-0.28549546,0.01008060,0.10241377,0.12446002,-0.30767107,0.16722541,-0.59407526,0.18087924,
-0.07814949,-0.41524407,-0.40338820,-0.30406258,0.17127095,0.29430276,-0.02958698,0.36789346,-0.60917032,0.02297731,
-0.24974337,0.49282211,-0.24424399,-0.14564203,0.50045127,0.43190002,-0.22618091,-0.11202487,-0.15415812,0.25826418,
-0.65301621,0.31454322,-0.14564818,0.30248621,-0.66564286,-0.10910735,-0.75907314,0.29544255,-0.37075087,-0.06935006,
-0.07554512,0.22431512,-0.41545197,-0.35493299,-0.65682602,-0.85541147,-0.51210165,0.28076428,-0.05067910,-0.04701312,
0.33916491,-0.51474351,-0.41169265,-0.08457354,0.40415123,-0.21831802,-0.17048334,0.48083740,0.66652095,0.04471939,
0.32531449,0.00959799,-0.08515089,-0.03389102,0.04930281,0.22102912,0.54943103,0.45479345,-0.36055312,-0.00619276,
0.04120528,-0.01435572,0.00409266,-0.07720806,-0.21356277,-0.14039968,0.25948873,0.69025779,-0.07927363,0.43406045,
-0.02972448,0.03325496,-0.29202268,-0.16616587,0.31021440,0.17472452,-0.19605933,-0.18447921,0.43107295,-0.00695742,
0.31488132,0.01443820,0.02852352,-0.16053902,-0.34142169,-0.45584059,0.26302725,-0.08131877,0.34531814,-0.40887788,
-0.82293993,-0.32303712,0.30502412,-0.00187183,-0.30469775,-0.29434529,-0.08127728,0.17963399,-0.07125135,-0.00818218,
-0.06530319,-0.11517425,-1.00130427,0.14308713,0.15062933,-0.13471235,0.44656304,-0.31145701,0.07163993,-0.03317558,
-0.30897930,-0.21187922,-0.51424003,-0.05014049,-0.01080342,0.01738129,0.42101800,-0.06455835,-0.36793488,0.24293613,
-0.10242014,-0.05696707,0.22837277,0.29059973,-0.54538161,0.19736975,-0.28701314,0.21139602,-0.07374148,-0.18633890,
-0.74504197,0.09025135,0.33816794,-0.35647038,-0.07715759,0.03455768,-0.62993085,0.08584045,0.03828917,0.14443335,
-0.08550771,-0.31635419,0.26772541,0.51113862,-0.13761726,-0.10936937,0.04162138,0.42998394,-0.50497985,0.38327658,
-0.03807960,0.14993443,-0.70973980,-0.34293965,-0.08962840,0.28167921,-0.88629985,0.06257867,-0.13975511,-0.29164264,
-0.30361432,-0.24731196,-0.39988109,-0.42248473,0.38028151,0.06642838,-0.09818999,-0.02432947,0.22064739,-0.59390706,
-0.03900252,-0.00627666,0.26011434,-0.55541301,-0.50487447,0.17972964,0.68697441,0.06972814,0.05418475,-0.20212246,
-0.38849717,-0.06799309,-0.01215561,0.37577558,0.58451688,0.31113210,-0.34588590,0.07687351,0.53907633,0.02538689,
-0.07503577,-0.02176435,-0.03505275,0.13643791,0.00384774,0.41065976,-0.43489587,0.21077174,0.07381916,-0.02204606,
-0.05074846,-0.22286750,0.11734974,0.02496403,-0.14883977,-0.00771985,0.30052760,0.08110137,0.22763348,0.05430394,
-0.05844626,0.15495613,-0.06678665,-0.14509070,0.14533222,-0.18141408,0.26906106,-0.59058714,-0.53541106,0.05342321,
-0.23136254,-0.02550196,-0.27269766,-0.56300235,-0.58212912,0.19257286,0.25622782,-0.00605814,-0.28629103,-0.11603810,
-0.64219654,0.24231625,0.03805656,-0.17843448,0.33233038,-0.43440294,0.25384325,-0.06052483,-0.37286195,-0.11995456,
-0.15715444,0.24908170,-0.09264535,-0.42931449,0.40273440,0.00995647,-0.10465746,0.05477425,-0.05350765,-0.07151551,
0.30207887,0.01151920,-0.47372037,0.13696861,-0.18242429,0.29625097,0.01648418,0.09951475,-0.66502923,0.03090382,
0.40879864,-0.06569147,-0.03905208,0.19503415,-0.53451192,0.07190125,0.25740242,0.21984637,0.00905620,-0.23944201,
0.22040960,0.29488698,-0.10967474,-0.06348711,0.52246523,0.14104998,-0.16744682,-0.18119468,0.17308462,0.13171314,
-0.35721871,-0.23684937,-0.01846369,0.29433140,-0.83907574,-0.07966541,0.24709634,-0.60521889,-0.04418289,-0.00682826,
-0.03847744,0.09115244,0.23277567,0.08101352,-0.09204343,0.06945803,0.07760325,-0.03362224,0.05936168,0.06238206,
-0.09226193,-0.64596725,-0.38839945,-0.03308931,0.23714963,0.16572440,-0.10252060,-0.18537533,-0.39409018,-0.05116680,
-0.02871453,0.07446151,0.42442846,-0.14635415,-0.30515194,-0.06376310,0.22457980,-0.06828552,0.00741391,-0.01907056,
0.00787280,0.23918526,0.00147446,0.18976633,-0.30686787,0.15224403,-0.02162166,-0.35981920,-0.58246356,-0.08371408,
0.00657507,-0.02222879,-0.06436121,0.13305131,0.35152417,0.03623040,0.08390584,0.02356379,0.06410632,-0.33096144,
-0.04855148,-0.29397473,-0.13619876,-0.11609025,0.28493464,-0.37778479,-0.19891857,0.10202066,-0.19438323,0.07226600,
0.02579680,-0.45457241,-0.29369989,0.06475995,0.28830880,-0.03979000,-0.17500131,-0.26371291,-0.13210519,0.19611974,
-0.03364630,-0.14709215,0.23833360,-0.46798509,0.21146749,-0.01972854,-0.38604578,0.30633184,-0.12389135,0.14175127,
-0.00749496,-0.31803393,0.13337106,-0.06182918,0.03111716,-0.10951559,0.00980786,0.11309160,0.36253801,0.04016856,
-0.11542623,-0.38740727,0.06801673,0.29314047,0.05374864,0.10821894,-0.01897311,-0.08984580,0.35649094,0.22339183,
-0.35097879,0.08978104,-0.62566572,0.07016616,0.07986991,0.06026462,0.08540909,-0.21966146,0.09686019,0.26399070,
-0.14273879,0.05326155,0.58214688,-0.27507719,0.01817317,-0.02419352,0.53543657,-0.07200702,-0.34691003,-0.09769499,
-0.14182030,0.67650300,-0.64618450,0.05892759,0.29868895,-0.48700625,-0.06692597,0.13292010,-0.06169856,0.57745045,
0.13226868,0.21730542,0.04356356,-0.02614456,0.12031816,0.39251387,-0.19744797,-0.07783718,-0.27532336,-0.03628684,
0.09695899,0.03562808,-0.23662007,0.21872073,0.06344543,-0.07445228,-0.12203468,-0.06674587,-0.03939589,-0.11358265,
-0.30900347,-0.38822347,-0.10344631,-0.13272743,-0.20335011,0.06981385,0.01977292,-0.24683118,0.21332526,0.09424362,
-0.15332542,-0.20878278,-0.05324267,-0.06352206,0.01136557,-0.16687255,-0.56989771,0.12808780,-0.05964394,-0.05378573,
0.11157051,0.29974836,0.17334546,-0.07199699,-0.01105362,0.00656536,-0.05144168,-0.15482336,0.00238158,-0.30761138,
-0.28203365,0.11098271,0.28303856,0.11849703,0.10151730,-0.31245464,0.29956964,-0.02183739,0.41374347,-0.33628178,
0.23413239,-0.14273997,0.46447247,0.07172423,0.38106069,-0.23336841,0.13722198,-0.08891897,0.03958869,-0.01843170,
-0.24014188,0.14784312,-0.12791303,-0.02671213,-0.21030898,0.25752419,-0.17791203,0.16593777,0.01514183,-0.04316140,
-0.15281174,-0.06528152,0.13543351,-0.28091440,-0.13488264,0.24279678,0.45635042,0.18103544,0.23732950,-0.18976113,
-0.18963151,0.10776292,0.01434204,0.02170856,-0.20118684,-0.04468524,0.04362047,0.16334468,-0.55222958,-0.06640371,
-0.41902775,-0.01044707,-0.03257367,0.10501774,0.06340074,-0.10788553,-0.00809040,-0.02566143,-0.06550648,-0.00437732,
0.27038497,-0.22662643,0.02029557,-0.04197948,0.53622139,-0.19026037,-0.28680465,0.00542537,-0.24557726,-0.15657301,
-0.14543308,-0.06567242,0.25029641,-0.05655920,0.16519329,0.05681998,-0.20990881,0.58322847,0.09269552,0.28469920,
-0.03245953,-0.01756239,0.03229884,0.47498873,-0.15590902,0.02486764,0.02318022,-0.15082830,0.00867533,0.05497628,
-0.07118098,-0.02186818,0.13774240,0.11797091,0.07355802,0.06623957,-0.00757835,-0.19562533,-0.26342785,-0.40745640,
-0.12087702,-0.06468158,-0.20805828,0.01943238,0.04116629,-0.05063298,0.04849253,-0.20742984,-0.22333509,-0.01311028,
-0.04257594,0.08766463,0.07629043,0.03706431,-0.40356803,-0.18292421,0.00635728,-0.17833318,0.05222302,0.16556571,
0.27819622,0.03255510,0.13525702,0.07575402,-0.05852066,0.04283769,-0.01080870,-0.09152786,-0.22175519,-0.01891920,
0.51876253,0.03670523,0.10501345,0.01028491,0.01049107,0.03641403,0.14759569,-0.35136947,0.15934187,-0.05641601,
0.28596151,-0.00980536,0.16481097,0.06958061,0.04149998,-0.05314143,-0.01963037,0.04909614,-0.14036049,-0.02342596,
-0.08011778,0.02428490,-0.13894142,-0.11558323,-0.19658476,0.23070700,-0.05670245,0.20458710,-0.05282110,-0.02815337,
-0.08242244,0.08582128,-0.09599729,0.20878300,0.27349517,0.12896708,0.03639731,-0.18978153,-0.07599556,0.08272194,
0.01794138,-0.08326452,0.09416286,0.29669604,-0.00455883,0.29426974,-0.24898675,-0.20001476,-0.32287210,-0.05533619,
-0.08786847,-0.04895687,-0.29920453,-0.12612361,0.03728436,-0.11478486,-0.13797535,-0.00761360,-0.04960814,-0.05850812,
-0.18676396,-0.14700575,0.09578004,-0.14169356,-0.29300776,0.06279074,-0.24889533,-0.02309192,0.26375252,-0.06188808,
0.03369638,-0.46995139,-0.03439538,0.04524480,-0.20265956,0.23116569,0.12168325,0.23368266,-0.02341586,-0.04902732,
-0.00283650,0.18930924,-0.08452621,0.03951616,0.07481004,-0.04365228,0.00799776,-0.06229211,0.06050703,-0.27759314,
0.34049436,0.35441417,0.08266765,-0.04248930,0.05011033,0.29283637,-0.12686287,-0.20860392,0.03502200,0.02605246,
0.16664171,-0.04840833,0.05787478,0.35764599,-0.05441152,-0.51853424,0.08184627,0.05712899,0.00377757,-0.24476495,
0.36536744,0.31165418,-0.06506626,-0.29270810,-0.15703319,-0.13059048,-0.04158111,0.04389909,-0.32797459,0.00103595,
0.16085036,-0.06699108,0.01264590,0.07508037,0.02164761,0.22223438,0.02645240,-0.03892660,0.67956978,-0.02181890,
0.20925014,-0.12488223,-0.14789207,-0.01200996,0.46943748,0.07312728,0.07652651,-0.00349810,-0.14762789,-0.01483717,
-0.22776465,0.14451252,0.13916218,0.26070881,-0.22409140,0.16609311,-0.08097263,-0.05008677,-0.14239074,0.06368268,
0.16217192,-0.31289926,0.32078290,0.42203104,0.07741592,0.08769710,-0.01154622,-0.08257794,-0.15815476,0.31182519,
0.05907205,-0.23771018,-0.05751444,-0.04418980,-0.02434358,0.24901055,0.00998716,0.01687331,0.05889224,0.11838004,
0.15788703,0.26041374,-0.01390788,0.14448754,-0.17658612,0.30995587,-0.15287472,0.07076774,-0.09758835,0.14744033,
-0.16968066,-0.03149945,0.21780938,-0.01413519,-0.02143653,0.08126695,-0.13880154,0.34892324,-0.13878465,0.06481057,
-0.14508691,0.37825212,-0.28136128,0.04226261,0.18356107,-0.01755136,0.19087896,-0.04789142,0.21738775,-0.27916506,
0.13510975,0.16314438,0.13281737,0.00298137,0.35989702,-0.24011527,-0.04363881,0.02780968,-0.01622465,-0.08353075,
-0.14713459,-0.07656626,0.06184141,-0.09231378,0.05588083,0.03507994,0.06332175,0.33036771,-0.25730741,-0.02232446,
0.05841873,-0.05549421,0.05945588,-0.11929358,0.35432446,0.30663285,-0.12374391,0.00792214,-0.14665650,0.05833762,
-0.02951715,-0.20458503,0.07101575,0.19029330,-0.07223587,0.25915650,0.05491567,0.07809664,-0.06381283,-0.33819643,
-0.22592781,0.17316212,-0.02703114,-0.01891293,0.22656156,0.05754491,-0.09380992,-0.00866812,-0.16667275,0.02361961,
-0.03315704,-0.25896674,0.05110123,-0.22612804,-0.12585461,0.04521544,-0.25954375,-0.17107339,-0.44952160,0.00964520,
0.35461509,0.06525516,0.20387626,-0.16375844,-0.02694189,0.11965310,-0.19168825,0.06765430,0.09608490,-0.21340480,
0.01309346,0.06524623,0.02589164,0.06684219,0.11129897,0.02458630,0.27141038,0.04888562,0.10272906,0.23633902,
-0.29346573,-0.32390228,0.00557173,0.05745748,-0.07940846,0.03639103,0.31080407,-0.16417739,0.03311530,-0.09053832,
0.23335974,-0.14985792,0.08124656,-0.19233783,-0.18792941,-0.07986877,0.07530052,-0.03696737,0.21339132,-0.13974002,
-0.08258858,-0.19751632,0.03891433,-0.11274976,-0.00646400,-0.07123739,-0.08724311,0.05007248,-0.00973321,-0.13421527,
0.04896824,-0.10360020,-0.07972396,-0.04200012,0.06005379,-0.09427796,0.08808476,0.31865540,0.08920448,0.21541654,
-0.18088153,0.16701530,-0.26339385,0.05174877,-0.01301761,-0.00129903,-0.08044789,0.23972696,0.05325295,0.18806013,
-0.00991500,0.03292330,-0.17603172,-0.09646395,0.07369437,0.04282834,0.19154519,0.02754054,-0.12235244,-0.04897496,
0.12914102,-0.31686532,-0.12895344,-0.07417746,-0.05199831,-0.01593819,-0.02072365,0.20041302,0.14025912,-0.01531336,
0.01028401,-0.03703747,0.38061720,-0.03326994,0.07725799,0.00638755,-0.01172158,0.05986270,0.06825431,0.09774096,
0.01331616,0.24417049,0.10606477,0.20793743,0.06471507,-0.14839619,-0.30871382,-0.16487166,0.26242930,0.35327756,
-0.03987091,-0.02525799,0.01255811,0.06775071,-0.07730021,0.01907702,-0.07500564,-0.05692538,-0.06330568,-0.02167436,
0.01202239,0.12630790,0.22196381,-0.00498612,-0.19519791,0.14155935,0.04524155,0.02542178,0.37226924,0.01202694,
0.07955321,-0.18034925,0.15108146,-0.14932962,-0.18939841,-0.01573925,0.39217097,-0.05724863,0.24505237,-0.01495792,
0.01358301,0.01795479,0.25517657,-0.27688354,0.19785832,0.04678277,0.24707088,0.32907838,-0.15654671,-0.00320038,
-0.08093560,0.01102288,-0.09647962,-0.00172099,0.28792223,-0.11091735,0.05507154,-0.14159004,0.08224918,-0.15455100,
0.22273020,-0.04834844,-0.00387386,-0.03262909,-0.04270330,-0.07210351,0.28529191,0.03330323,-0.10677921,-0.07710651,
-0.04363056,-0.13502884,0.08118400,0.00062267,-0.10810518,-0.04032188,0.09252974,-0.23738281,-0.18780774,0.03777208,
0.01416375,0.01673680,-0.00634611,-0.05425787,-0.12407637,0.21629362,-0.04182544,0.03653960,0.14972386,-0.03642847,
-0.11840513,0.19472668,0.17087580,-0.02294370,0.09907620,0.09289767,0.09678185,0.04281002,-0.03625973,-0.31230882,
0.15076007,-0.03238247,0.08182194,0.03364207,0.05750104,0.06438003,-0.23077649,0.06325469,0.11585116,0.57147533,
0.21957248,0.09043139,0.16768475,-0.06546926,0.15702887,0.04842168,0.21221294,0.04911766,-0.07231159,-0.03824920,
0.28955331,0.18626949,-0.03162505,0.04679308,-0.07481861,0.06580416,-0.06433926,0.11865000,0.08580625,0.00908978,
-0.01519306,0.34840998,-0.01835555,-0.17724916,0.12113564,-0.13632293,-0.09559505,0.25986087,0.00803126,0.01012412,
0.25371164,0.01678098,-0.12297136,-0.06617090,-0.19689780,-0.03048859,0.04365861,-0.07598281,-0.03022912,-0.02042717,
0.01342979,0.01977748,-0.06277300,0.04162110,-0.09637854,0.05787555,-0.10729454,0.03501572,-0.28075117,-0.12082889,
-0.20461494,0.24400584,-0.02925569,0.06734619,0.23592848,0.13937819,0.22325231,0.05762042,0.00986964,0.00294709,
0.22458535,-0.27211818,0.23658213,-0.07955038,-0.16151889,0.00953013,0.02784827,-0.04588840,0.04261620,0.04827616,
-0.18121803,0.05053305,-0.10280037,0.25196546,-0.19648427,-0.15039536,0.10536073,-0.00794414,-0.19245026,-0.09121620,
-0.21933822,-0.06435478,-0.06310873,0.05290301,0.21626452,-0.11471172,-0.00799347,-0.20338239,-0.20011710,-0.16281489,
-0.15221645,0.04798914,-0.30501503,0.12262308,0.07823801,-0.10428581,0.13068661,0.04839254,0.13534014,-0.04964690,
0.06791139,0.22501226,0.01082333,-0.11567185,-0.01877168,-0.05476960,0.11622047,0.10823286,-0.29106936,0.06752440,
0.29703236,-0.01967229,0.25453416,0.11445816,0.01794299,0.19392268,0.02705729,-0.30668357,-0.01221969,-0.18863945,
0.00731100,-0.04513358,0.33999264,0.10969210,-0.16332382,-0.06554277,-0.13629544,0.06937219,0.06207558,0.17704336,
-0.27089176,0.44000733,-0.35908386,0.03306567,0.08586407,0.03077573,-0.00282849,-0.20020819,0.15162729,0.19946104,
-0.02892179,-0.01962445,-0.16831459,-0.04912328,0.06599376,-0.38392791,0.02119623,0.25103298,-0.15613897,0.29516488,
-0.04760842,-0.37837750,-0.08204374,-0.40189597,-0.22564553,-0.09486275,0.07054254,0.04462551,-0.13009538,0.05956525,
0.17367113,-0.04875166,-0.45986843,0.02620736,-0.00205672,-0.33638039,-0.01970112,-0.37598813,0.18330406,-0.05629240,
-0.41929767,0.23807108,-0.09297332,-0.07459285,-0.19688831,0.02537397,-0.00842200,-0.48770994,-0.05927429,-0.16527884,
-0.16940609,0.09246744,-0.02004341,-0.15697442,0.13271220,-0.07247417,-0.02176667,-0.27307242,0.25495979,-0.14227201,
0.40217319,0.04459535,-0.18368760,0.36555994,-0.50408727,-0.23347844,0.03283307,-0.05477221,-0.23913239,-0.06118426,
0.29025069,-0.19209978,-0.37293106,-0.21892001,-0.06728853,-0.31205887,0.10154210,-0.41465753,-0.28120229,0.10195472,
0.05229204,-0.32411048,0.49178791,-0.27117643,0.18189640,-0.07784213,-0.07959121,0.20135257,-0.08378487,0.02176701,
-0.14844871,-0.03404926,0.01445351,-0.10728001,-0.30736512,-0.18570091,0.10137036,-0.03905967,0.06582316,-0.19315237,
0.07092258,-0.12515250,0.22656235,0.06212257,-0.25350058,-0.09173734,-0.55753040,-0.09749291,0.25479031,0.04899419,
0.09527885,0.28405973,-0.03601241,-0.04349305,-0.03581997,-0.11045781,-0.13350360,0.00398045,-0.01911754,-0.21871030,
0.20312037,-0.02856761,-0.23561916,-0.03666672,-0.13680662,-0.17014816,-0.21161862,0.25473648,-0.09670479,0.35878316,
-0.20913000,0.19476397,-0.30301958,-0.03073438,0.06432583,-0.06070959,-0.10455367,0.46887159,-0.01305183,-0.07014658,
-0.06555153,-0.03915400,-0.01287198,-0.32089338,0.10253756,0.16469674,-0.16580570,0.30599841,-0.32440236,0.37299028,
0.00956238,-0.77978212,-0.33007157,-0.03384145,0.13712680,0.04299555,-0.05557229,-0.10080180,0.06012603,0.04860201,
-0.18626010,0.06231655,-0.04469986,-0.61044097,0.06050929,-0.42578325,-0.07943109,-0.04930492,-0.22098847,0.15797524,
-0.07513464,-0.04948987,-0.14502332,-0.00729495,-0.03589796,-0.70439845,-0.10554515,-0.25974175,0.06795584,-0.03154331,
-0.14394164,-0.07011473,0.01842855,-0.00535530,-0.12970322,-0.23681568,0.06227432,0.09613658,0.20382656,-0.00155078,
-0.22942604,0.41938612,-0.54597652,-0.18827926,0.05409964,-0.25347471,-0.29357597,-0.06930383,0.13228826,-0.09543113,
-0.33991182,0.15413785,0.18788926,-0.28071582,0.22467309,-0.36962441,-0.20876192,0.14387955,0.04721031,-0.13851343,
0.37298340,-0.15549017,0.03521219,0.00058649,-0.02495106,-0.04622946,-0.33453685,0.05606333,-0.06745686,-0.18910509,
-0.14018321,-0.24023107,-0.11374395,0.04348524,-0.11799438,-0.05980784,0.10865191,0.09424764,-0.23461710,-0.12007966,
0.10495871,0.08793600,-0.23721513,-0.24640775,-0.51404703,-0.02301705,0.02939557,-0.01035281,0.00900440,0.19736034,
-0.08585718,-0.23048289,-0.16703987,-0.11527587,0.25382435,0.09078596,-0.01891434,-0.02932729,0.30464536,-0.08350687,
0.10588840,0.03246172,-0.10754815,-0.41615847,-0.57978845,0.06872355,-0.08503899,0.02723501,-0.00247938,0.10110255,
-0.69098473,0.06525580,-0.05623332,0.22310092,0.10513042,0.09085684,0.02535977,-0.01769954,0.22607560,0.00106709,
-0.02242560,-0.22449026,-0.00536463,0.37323770,-0.14846773,-0.24813557,-0.31438759,-0.03776011,0.06197469,-0.60628128,
-0.45171243,0.18566015,0.00301572,0.25132453,0.18892647,0.14707355,0.18196250,0.01116319,-0.06318621,-0.04718734,
-0.00263537,-0.36265036,-0.13945894,-0.15898432,-0.37152413,-0.03732615,0.05084066,-0.20730464,0.36226201,0.21299724,
-0.41034916,-0.01302776,-0.02626402,-0.73895437,0.09207967,-0.30361834,0.26376858,-0.03389710,-0.29029289,-0.24024129,
0.06896560,0.10620468,0.14848903,-0.28294635,-0.09870050,-0.10546371,0.23041812,-0.00313180,-0.25444895,0.25461456,
-0.20110093,0.06208863,-0.05416666,0.05848704,-0.08301779,-0.07400414,0.08017037,-0.25433993,-0.17522506,-0.34141901,
0.24369892,-0.07365878,-0.12911575,-0.34976369,-0.10807456,0.18674263,0.00939459,0.04731022,-0.21775883,-0.18248759,
0.34814286,0.04478712,-0.11224369,0.06035953,-0.32319590,-0.06285064,0.13268028,-0.13728248,-0.31959936,-0.20961477,
-0.15876502,-0.13629927,0.00829467,-0.02854898,0.28626388,-0.15390342,-0.19266509,-0.07583030,0.59196067,-0.27117550,
-0.17061219,-0.09487551,-0.04781933,0.15326191,-0.54921395,-0.01313406,0.57027173,-0.00464230,0.03016416,-0.23908913,
-0.21329944,0.34974414,0.55977553,-0.01186140,-0.05128110,-0.04368373,0.26953286,-0.27182466,0.06317858,0.05581429,
-0.25258955,-0.30837095,-0.31066725,0.14764409,0.13777892,-0.21738002,0.23227257,0.00883445,-0.24884075,-0.02266617,
0.00822040,0.16902773,-0.22670709,-0.00664650,-0.12301374,0.07201925,0.26950786,0.02367638,0.06211451,0.08406925,
0.03802030,0.03934839,-0.07185068,0.16705643,-0.41389465,0.32757244,0.07957342,-0.29100013,-0.74068540,0.01531761,
-0.07857946,-0.03466006,0.38820782,0.08168859,0.14077230,0.04361769,0.10116294,-0.02224438,0.02842288,-0.46642503,
-0.18664938,-0.13865551,-0.66591758,0.06606939,0.27615899,-0.28086671,0.10861132,0.03324405,-0.08698724,-0.05035346,
-0.12639509,-0.73483133,0.00499584,-0.18151474,0.16018805,0.08534702,-0.15064362,-0.14013566,-0.19437198,0.01181098,
-0.03901034,-0.09506106,-0.00488207,0.02995279,-0.07144410,-0.00562325,-0.28810936,-0.06680432,0.00135794,0.14486460,
-0.02916298,0.31028008,-0.08092383,-0.02603217,-0.23749146,-0.04512890,-0.06355388,-0.26529133,-0.13572797,-0.11771180,
-0.34896562,-0.20401421,-0.12106707,0.20052417,-0.05374053,0.11035937,-0.63571578,-0.11174105,0.27898085,-0.11488637,
0.43994340,0.04336492,-0.28428072,-0.01336604,0.06288872,-0.17325941,-0.33693436,0.03237935,0.08822473,0.06661075,
-0.07459444,-0.13361286,0.05769924,0.25301084,-0.20742342,-0.01831658,0.33315483,-0.29768550,-0.36202198,0.10396874,
0.08548167,-0.34658945,-0.40862453,-0.05821512,0.38548496,-0.22308497,0.05964458,-0.03626617,-0.36026597,0.13850784,
0.57009476,-0.25458565,-0.14257886,-0.09642027,0.30313998,-0.23759773,-0.43179730,-0.00666075,0.03318466,-0.08628778,
-0.33244905,-0.05986591,0.29691195,-0.05734565,0.15768935,0.14250650,-0.27918029,0.02605360,0.07051089,0.22215669,
-0.29640406,0.06884770,0.01222260,0.07372387,0.22743365,0.03743206,0.01292601,0.01546794,0.15469058,0.09584408,
0.03043325,-0.08656584,-0.62937135,0.16955203,-0.19044442,-0.27634683,0.14456794,-0.00176493,0.02564775,0.07604188,
0.36709189,-0.12926494,0.18932998,0.06971220,0.12504503,0.06751214,-0.10761628,-0.27000198,-0.31142181,0.12618171,
-0.15987681,-0.02215143,0.50630116,-0.11755706,-0.12093622,-0.16725576,0.13039315,-0.07424559,-0.03001956,-0.58875775,
0.21607788,-0.26732650,0.04575576,-0.02462895,0.01803502,-0.32445511,-0.16247386,0.05921340,-0.04053557,0.02078881,
0.01139675,-0.27285314,0.20234136,0.01984098,-0.37111065,-0.04192285,0.04523434,0.26441002,-0.02599280,0.14014407,
-0.17963296,-0.07194218,0.08954907,-0.24151139,-0.21191527,0.01858013,-0.13813595,0.20021802,-0.12068781,-0.28658316,
-0.21852086,-0.14086357,-0.07214414,-0.06603686,-0.63890064,0.31433773,0.25419727,-0.04630995,0.05049865,-0.10262233,
-0.51635015,0.02499377,0.30065078,-0.32653767,-0.46085376,-0.14544201,-0.01373481,0.28304011,-0.10515144,-0.15107012,
0.22341278,-0.07998712,-0.04046429,0.18427348,0.17721467,-0.39290500,-0.28242084,0.09276406,0.36497056,-0.14797090,
-0.53749532,0.02577592,0.29261348,-0.40872970,0.00441397,-0.34995207,-0.35342681,0.32526886,0.64086646,-0.24488799,
0.14393145,-0.34070939,0.11017480,0.10029773,-0.04768756,0.04337347,-0.08930942,-0.07180784,-0.09322798,-0.24080916,
-0.16633767,-0.01619175,0.07946396,-0.00904736,-0.14676073,-0.06992970,0.04808456,0.20618473,-0.23175792,0.17880674,
-0.08483212,-0.14622821,-0.04138352,-0.08634073,-0.03268259,-0.15102635,-0.14289390,0.20739056,-0.07338508,-0.27255061,
-0.51764613,-0.04800171,0.08958519,-0.32059568,-0.02233995,0.22845699,0.05930952,0.03469374,0.22684020,-0.13233061,
-0.05612652,-0.03313622,-0.01222541,0.03537484,-0.09141176,-0.67740434,-0.38331050,-0.45774466,0.15876578,-0.00687549,
0.04528444,0.29862651,0.18401568,-0.42668912,0.06405839,0.05566491,0.10295679,-0.30164638,0.39436308,-0.35739988,
-0.28113073,-0.02250146,0.12513991,-0.22859375,0.20243588,-0.00527473,-0.04592640,-0.13160668,0.16225897,-0.09175421,
0.01940273,0.07233829,0.24740459,0.21873975,-0.47158065,0.11310887,-0.01430920,0.02425715,-0.14883383,0.06810754,
0.14443682,-0.26131085,-0.21382987,0.38589677,-0.16384897,0.00047013,0.13688517,-0.41267264,-0.43376249,-0.02778632,
-0.02783911,-0.64063007,-0.31496727,-0.35888374,0.14066172,0.28486755,-0.03263907,0.25676078,-0.31507003,0.00034891,
-0.02064975,-0.66484958,-0.46639824,-0.06426337,0.10950419,-0.10041838,-0.17713577,-0.18098292,0.15756866,-0.15540214,
-0.20760141,0.34143463,-0.25717124,-0.51724815,-0.50064903,0.22410433,0.09148210,-0.03569786,-0.22318824,-0.10560911,
0.03548062,-0.09608474,-0.19461496,-0.33152381,-0.34387714,-0.13594300,0.14732599,-0.30541196,-0.05836283,-0.31278685,
0.04434826,-0.05366107,0.03103804,0.05204111,-0.10263548,-0.09797098,-0.18227170,-0.06634050,-0.11641485,0.09425291,
-0.12369234,-0.31771767,-0.46095043,0.06469290,0.02969015,-0.18610333,-0.02990394,0.10344020,0.03071173,-0.12964579,
-0.03703505,-0.05944961,0.04592206,-0.09804073,-0.38181961,0.39059529,-0.27575946,0.01612495,-0.17850010,-0.07251494,
0.10910132,-0.31975189,-0.40669605,0.28450599,-0.17283818,0.05498748,0.12941974,0.14464273,-0.29615515,-0.01866854,
-0.01034078,-0.01128827,-0.00256050,-0.83319879,-0.19250302,-0.28274795,-0.09441753,-0.02016744,-0.16900013,0.46312782,
0.04615052,-0.35032278,0.13252507,0.10286196,-0.05718569,-0.47570202,0.17219518,-0.12005064,-0.04545545,-0.06287462,
0.15756175,-0.08537114,0.08747610,-0.14341697,0.04197817,0.10946435,0.11078333,-0.00881714,-0.05099990,0.05410682,
0.42678165,0.13255504,-0.32269639,0.18190938,0.05008610,0.17945383,-0.27064881,-0.06239616,-0.00146140,-0.18782713,
-0.10817885,0.25171050,-0.18016952,0.03753644,0.00252762,-0.34299964,-0.26119661,-0.07849351,0.04328055,-0.61608076,
-0.31773821,-0.08539221,0.14277819,0.04650247,0.21081433,0.08435427,-0.03603766,-0.01957610,-0.30271861,-0.48363635,
-0.02479675,-0.17299822,0.16663851,-0.01070771,-0.21616532,-0.12839603,-0.05473233,-0.17645663,-0.22926335,0.28342146,
-0.57460397,-0.27358356,-0.15403804,-0.00170984,0.22508864,-0.10198537,-0.09407728,-0.00805455,-0.13368033,-0.26081684,
-0.34445372,0.22985011,-0.14167364,-0.02138637,0.32037470,-0.30875385,-0.05309976,-0.31665716,0.04642878,-0.29539376,
-0.28785834,0.05236429,0.03258305,-0.09319658,-0.01768824,0.14302666,0.25829855,-0.01153795,-0.14535308,-0.34367993,
-0.36832476,-0.01925470,-0.04517782,-0.16981620,0.28842229,0.15837890,-0.00299003,-0.00278036,0.18285342,-0.11322594,
-0.01896665,0.26744959,-0.29659003,0.03610029,-0.35181785,0.35841018,0.30224812,0.21481721,0.36727795,0.26878440,
0.25313964,-0.10377208,0.11427149,-0.06954936,0.05679638,-0.02732654,0.10028852,-0.07351139,-0.25707477,0.01483195,
0.01080141,-0.26969343,-0.04755430,0.30987763,-0.29794070,-0.08724348,-0.39821848,0.12541388,-0.22623058,0.04345443,
0.07654588,-0.11434301,-0.36867413,-0.55090457,-0.03731747,0.27846596,-0.28628364,-0.08172742,0.03981069,0.24685669,
-0.14649352,-0.36801645,0.07668307,0.17321947,0.05223084,0.32159248,-0.29045367,0.04503100,0.30959579,0.01609436,
-0.40200615,-0.19699384,-0.04964495,0.25390321,-0.00067919,-0.03457801,-0.32762006,0.23301598,-0.00657241,-0.12278392,
0.25090209,0.22941366,-0.28038311,-0.16497160,0.03223825,-0.16637295,-0.02451331,-0.60279322,-0.04656409,0.34111029,
-0.05177097,-0.36803320,0.44423282,-0.39462429,0.41479361,0.05129336,-0.48978344,-0.14342153,0.28069031,0.06308315,
0.23045379,0.08327465,-0.31170171,-0.22575268,-0.42846939,0.38346165,-0.07902277,0.03926660,-0.88968551,-0.10436732,
0.22103232,-0.12544073,0.34496641,-0.16076353,0.31239957,0.02105644,-0.02794229,-0.06745747,-0.63318372,0.37996924,
-0.10753126,-0.36323726,0.27154729,-0.31931144,-0.04902142,-0.08635809,-0.06934328,-0.06024961,-0.24528207,-0.06607290,
0.11670881,0.15284012,-0.05135524,0.08060366,0.00007514,0.17475864,-0.07213490,-0.29458186,0.06893569,-0.01772220,
0.06385377,0.09212130,0.06839423,0.07317711,0.09753828,0.08040054,0.02959672,-0.08271957,0.02716549,0.38810357,
0.04601744,-0.00137538,-0.31772161,0.01711819,0.19571865,0.18930776,0.12706351,0.22170472,0.38585109,-0.18733303,
0.23626895,0.01459309,0.03213071,-0.17207602,0.05380193,-0.01399185,0.02188046,-0.01715974,-0.00685811,-0.09364169,
0.17973043,0.17502393,0.00629526,-0.05913711,-0.30099833,0.27830747,-0.16532823,-0.15913555,0.07158954,-0.00316245,
-0.36420450,-0.19420765,0.22665247,0.16100179,-0.26460966,0.05804454,0.16023719,0.14684476,0.01907470,-0.01560498,
0.10556837,0.30589139,0.07706635,0.05758336,0.03117015,0.03237740,0.24937557,-0.12335946,-0.44182074,-0.00706642,
-0.05625743,0.10631385,0.12610336,-0.09655861,-0.09759848,0.17420420,-0.16791162,-0.02653423,0.13302675,-0.20876200,
-0.31515607,-0.25705063,-0.24082173,-0.19510737,-0.02571715,-0.39537245,0.21167929,0.02009714,-0.16736868,-0.12904142,
0.15473607,-0.13365702,0.31787872,0.06895719,-0.25553688,0.03361696,-0.00967542,0.17451741,0.12737054,0.03963050,
-0.30022308,-0.09731147,-0.27692679,0.14874975,0.07487510,0.22228235,-0.81025118,-0.02573087,0.11933605,0.17911565,
0.11223634,-0.04373491,0.18716417,-0.02401682,0.13056168,-0.02140810,-0.40446764,0.18027385,0.12067754,-0.18852612,
0.02560616,-0.07597515,0.00214807,-0.12008643,-0.11411893,0.04654811,-0.10760111,-0.04913079,0.11840861,0.04325791,
-0.03465158,0.15615632,0.03881685,-0.09425119,-0.13394438,-0.04171883,0.27476120,0.00896239,-0.03888180,0.18280156,
0.02759383,0.06869152,0.02655487,0.19721001,0.05325884,-0.02249815,-0.05956490,0.28394398,0.09072810,0.05898771,
0.06335933,-0.15021808,0.16738018,0.00821727,-0.10112223,0.19106613,0.28308532,-0.13421908,0.17410994,-0.18211369,
-0.27898356,-0.08339175,-0.03498187,-0.06737271,0.23553123,-0.08920545,0.04435010,0.07231762,0.10789005,0.07610375,
0.08978310,-0.02540782,-0.00386973,0.09971607,-0.19795081,0.07557203,0.04484878,-0.09470522,0.00350061,0.30932671,
0.25551593,0.20330976,-0.10616276,-0.01386000,0.10349706,-0.02940566,0.25003996,0.24939863,0.14809322,0.00664688,
0.02126166,0.08750691,0.19176249,0.05609774,0.09274966,0.10472266,-0.06506673,0.23117611,0.03629067,-0.08491159,
0.05017579,0.04585090,-0.01352045,0.11228063,-0.33469346,0.06490412,0.06599183,-0.15004621,-0.16707715,-0.01008258,
-0.15188207,0.06293005,0.08011290,-0.24014167,0.16304219,-0.09010939,-0.28047419,-0.00461697,0.00605627,0.07412938,
0.18425152,-0.00470600,-0.02098929,-0.03252574,-0.04961672,0.06090093,-0.17025977,0.09056901,-0.18912512,-0.10444646,
-0.04798499,-0.09843743,0.10354801,0.15321732,-0.49344817,0.23144700,0.21406946,-0.09926161,0.19768722,0.06162773,
0.16702513,-0.10853956,0.31352383,-0.10148228,-0.12419460,0.05797369,-0.18185799,-0.09708532,0.12919775,0.11170688,
0.07601018,-0.14338432,-0.09835634,-0.06364440,-0.00243948,-0.01546261,0.09627838,0.02596432,-0.15121795,0.20694156,
-0.11563618,-0.16021995,-0.07233877,-0.02723189,0.17490244,0.01886045,-0.00944126,0.03494925,0.08624755,-0.08736547,
0.16133849,0.16545598,-0.00510457,0.03809027,-0.03475649,0.14760809,-0.09170362,0.09837049,0.06692599,-0.02563816,
-0.06973561,-0.09034179,0.00297031,0.10084066,-0.23740759,0.12990059,-0.12134843,-0.37070528,-0.21975605,-0.11347495,
0.00334866,-0.00519171,0.04140291,0.05393795,0.05775991,-0.07052855,0.01840347,-0.05140030,0.13642645,0.06136530,
0.03324050,0.05323955,-0.00879290,0.24298544,-0.02241865,-0.00159589,0.20167582,0.09819828,0.10861704,-0.04535090,
0.22288503,0.01773748,-0.07221529,-0.04160050,0.34906906,0.14001700,0.09813324,-0.10882552,-0.06021820,0.07575377,
0.28871968,0.01203382,-0.01909747,0.13413145,-0.08366346,0.28490892,-0.00853086,-0.23209582,-0.14279912,0.03033528,
0.14725089,-0.04884081,-0.01128318,0.35918018,0.14331223,-0.00130601,0.05909051,0.14097482,-0.23670666,0.11199442,
-0.02726004,0.19137642,-0.02199866,-0.01899111,-0.31833544,0.12314421,0.16900323,0.00959294,0.06344181,-0.02630719,
0.26321554,0.11437660,-0.19877359,0.11342903,-0.13156681,0.12242072,-0.22749314,-0.10557644,0.07162703,-0.00841138,
0.27702463,0.15737607,0.09930898,0.25832331,0.03840132,-0.26649591,0.20967624,0.25279158,0.18770188,-0.13984732,
0.20759457,0.07842378,0.20766990,-0.08671974,0.12909912,0.26482588,0.21018012,0.18960942,0.03099338,-0.01821204,
-0.13023081,0.02581890,-0.06684023,0.07251984,0.14676863,0.21197124,-0.02209548,0.25850952,0.15107001,-0.54253668,
-0.05067321,-0.03470103,0.26372218,-0.03615503,0.05897731,-0.12482392,0.24660653,-0.13101256,0.11332969,0.17455971,
-0.39806548,-0.00359676,0.04377762,0.10273870,-0.23063907,-0.29474524,0.15029724,0.07678539,-0.00512330,-0.21145022,
-0.06177211,0.12203989,-0.12979054,-0.07180764,-0.04843894,-0.28640065,-0.33896154,-0.20905620,-0.01200133,-0.06679661,
0.12234649,-0.08529755,0.00645598,0.02466858,-0.04618065,0.08812193,0.13966212,0.01663378,0.00576499,0.05565812,
-0.21320198,0.16937801,-0.14765167,-0.02627068,0.22184090,-0.14104666,0.10948627,0.18713579,0.07858209,-0.01826710,
-0.03413827,0.11845470,0.30645713,-0.04048181,0.13785164,-0.24849400,-0.06787600,0.23051606,0.24049667,-0.03720956,
-0.16860983,0.02533208,-0.00794196,0.14879450,-0.07032770,-0.00900209,-0.02796030,-0.04741867,0.04198897,0.15718636,
-0.06717878,0.15655452,0.24765424,0.20186755,-0.04056602,0.21717030,-0.13343084,0.13040979,-0.04831131,0.24558367,
0.00091994,0.19922933,-0.03740949,-0.08921234,0.30360937,0.10664743,0.04477866,0.06188423,0.03935551,0.04859847,
-0.23065585,0.13816950,-0.06206856,0.21131593,-0.27666596,-0.18856171,0.21094410,-0.07640977,0.21837153,-0.00666410,
0.15999296,0.39177859,0.05295389,-0.15926257,0.09880780,0.25076848,0.43366107,-0.10199704,0.26788878,0.28245008,
0.20071644,0.15062165,0.06559264,0.13684000,0.13225101,0.24216647,0.00095452,0.05903138,-0.05172322,0.09518643,
-0.01909801,-0.05536618,0.19385064,0.43847990,0.27292463,0.34591439,0.14274374,-0.60603368,-0.11453426,0.08332245,
0.23654610,-0.10160986,-0.03733393,-0.07165498,0.24897496,-0.18788777,-0.02974783,0.12819582,-0.33106297,0.03616512,
-0.01044502,0.15931532,0.02101155,-0.34251311,0.15772796,0.14237510,0.02067107,-0.20626973,-0.23250720,0.20148893,
-0.04732103,-0.18296447,0.12962218,-0.14079714,-0.11716180,-0.08760069,-0.09633502,0.05590844,0.10252690,-0.06322037,
-0.08355029,0.10521250,-0.11926074,0.09341515,0.21987468,0.03777357,0.00611347,0.00366189,-0.47772789,0.13484302,
-0.35598639,0.03017092,0.18953930,-0.18936071,-0.10960211,0.21687509,-0.10866401,-0.04335267,-0.10645628,0.12705056,
0.06574007,0.07651031,0.19951828,-0.23078814,-0.09719119,0.16455801,0.20378482,0.03138534,-0.39013445,0.16566664,
0.04965971,0.05321711,-0.06804118,-0.06662435,-0.03678463,0.04890716,-0.01139320,0.23483597,-0.02218651,0.14348695,
0.26748398,0.15343562,-0.04667378,0.11090454,-0.13333640,0.05946683,0.07880966,0.27240616,0.17923059,0.23156664,
0.15634829,-0.10033263,0.27577877,0.05519549,0.23100805,-0.05935334,-0.05775803,0.21870880,-0.13052002,0.05333295,
0.07322000,0.18330647,-0.21561526,-0.11803403,0.21472538,-0.17780772,0.32338145,-0.11773350,0.23579441,0.40202525,
0.20942540,-0.18011662,0.05487052,0.38012949,0.42035851,-0.11731387,0.25118825,0.24128251,0.09940495,0.16413359,
0.11102280,-0.13670352,0.05306506,0.21410988,0.02268614,-0.03412967,-0.08540797,0.14815454,0.20113200,0.06586368,
0.29773253,0.26709473,0.09347600,0.14719535,0.05119694,-0.29978445,-0.10166457,0.08324630,0.23409028,-0.05533616,
-0.06012630,0.26387385,0.08604358,-0.22988498,0.04059925,0.14628646,-0.13276315,0.07267640,0.03598784,0.12287540,
-0.01472449,-0.15402651,0.30041867,-0.15466194,-0.17733909,-0.29239771,-0.16020352,0.02507242,-0.10496769,-0.02865850,
-0.14932463,-0.15938035,-0.27435645,-0.25014788,-0.01217888,-0.06742764,0.02203820,0.00220285,0.05489034,0.02177922,
-0.06051588,0.05682161,0.16486129,-0.07905342,0.04617916,0.03823070,-0.12547161,0.13258104,-0.19003835,-0.04732416,
0.31385320,0.18433607,-0.08713932,0.03900771,0.17582856,-0.10244730,0.01525683,-0.05428966,0.27143055,0.34252918,
0.19374619,-0.17589481,-0.13897364,0.14376549,0.21472853,-0.02570192,-0.10003483,0.12241400,0.10750198,0.15271837,
-0.08091330,-0.09178498,-0.15364288,0.03618054,0.14028557,-0.04705528,-0.22916085,-0.05890538,-0.02180566,-0.04706413,
-0.01258360,-0.01266640,0.11843170,0.07014109,-0.06358050,0.15553418,0.25243554,-0.01549327,-0.07111915,0.07900939,
0.15225606,0.19920708,-0.01093893,0.02457184,0.18749475,0.04587513,-0.12671798,0.06565198,-0.14752379,0.04934725,
-0.26500168,-0.07339771,0.11155819,-0.08880562,0.44293159,-0.03877876,0.24952266,0.44298258,0.25616455,-0.14768046,
0.04634059,0.42140514,0.30474731,-0.08851606,0.14797437,0.19086975,0.35732803,-0.00802929,0.10382742,0.13542257,
0.08103463,0.19584413,0.06615844,-0.28374788,-0.05750178,-0.02156733,0.05505225,-0.01133848,0.21983750,0.25538212,
0.05257493,0.24798597,-0.06727193,-0.12324791,-0.07687709,-0.05400468,0.17578429,-0.02239113,-0.07286769,0.25722966,
0.09273876,0.01505510,0.01139304,0.05468225,0.17752261,0.00320676,0.06815264,0.26879653,-0.17857324,-0.12360415,
0.10002580,-0.07313923,0.02024352,0.07160752,-0.07847999,0.34961724,0.11230946,-0.31100291,0.14386396,0.02672159,
-0.37450528,-0.32071689,0.13345379,0.03494170,0.04837606,-0.05825855,-0.04728894,0.08027975,0.17625377,-0.10797565,
0.13710923,-0.01857437,-0.14479214,0.13609301,-0.14275722,0.00478547,0.03516344,0.01948731,0.11657607,0.33522135,
0.18597084,0.20373544,-0.07772911,-0.06909618,0.04786340,0.18099412,0.34296772,0.33309898,0.08738572,-0.44851327,
0.08768846,0.22993906,0.04257256,-0.04998218,-0.12297883,-0.06552832,-0.13638626,0.05851761,0.03372040,-0.09963245,
0.20209950,0.05429896,0.14239472,0.20668755,-0.13331848,-0.16071175,-0.05052621,0.00875354,-0.26789242,0.06804939,
-0.05671440,-0.10756984,-0.04200171,-0.09616970,0.26973954,-0.06568349,-0.00205660,0.11166677,0.09848192,0.16202208,
0.19420192,0.00517769,-0.00059162,0.16041610,-0.02480063,0.12978959,-0.05508939,0.10550949,-0.30236083,-0.22714099,
0.05921875,0.09971001,0.25672761,0.07848027,-0.31703019,0.39910957,0.23489252,-0.12975702,-0.09298802,0.20103732,
0.20176204,0.10230281,0.31729409,0.16797046,0.03408092,0.06166522,-0.14300956,-0.14335555,-0.04539329,0.21387435,
-0.03998160,-0.16137201,-0.08995355,0.08190555,-0.06314231,-0.01301593,0.28150746,0.15611610,0.09900814,0.21551055,
-0.03505694,-0.05842207,-0.09388269,-0.09585089,0.05523280,-0.00821020,0.02652473,0.05257814,0.10629806,0.10064868,
0.07984547,-0.01632065,-0.00388506,-0.11552045,-0.08377915,0.46485108,-0.17649995,-0.09712126,0.27272406,-0.06278964,
0.07155661,-0.00362067,0.12346779,0.42964789,0.56938446,-0.24466890,0.23773085,-0.04283900,-0.22875990,-0.15098670,
0.03739000,-0.03602752,0.19870199,0.05199270,-0.06050720,0.26388007,0.22120205,-0.00478526,0.09225386,-0.07145602,
-0.32665858,0.23581241,-0.19385970,-0.19955637,0.21344751,-0.09064905,0.05295201,0.05122662,0.21792912,0.26438472,
-0.32090020,-0.04081203,0.16682787,0.15665980,0.04849376,-0.10215379,0.10402790,-0.15125285,0.11199751,0.24526446,
-0.00107265,0.01952289,-0.03992353,0.01449908,-0.21677935,-0.03257548,-0.04116804,0.15927114,0.36785361,0.05744055,
0.04676743,0.31702405,0.00907227,-0.11334779,-0.09480012,-0.08493485,-0.30518612,0.02637433,-0.12621497,-0.05588423,
-0.05244533,-0.34628487,0.24375115,-0.03661030,-0.22135462,0.11715716,0.08000991,0.17981851,0.34759662,-0.07379256,
-0.18248791,0.24168827,0.01854028,0.12686656,0.05117559,0.09797149,-0.28701758,-0.22972830,-0.28392845,0.06209457,
0.09841400,0.04654862,-0.82752293,0.16572283,0.18532871,-0.03340167,-0.03877183,0.15708087,0.13235484,-0.00384819,
0.29165149,-0.04023438,-0.43040979,0.20645411,-0.29030403,-0.30577609,-0.20571725,0.17084745,-0.07135151,-0.29513317,
0.01311131,-0.04000489,-0.31667310,-0.04816104,0.08424015,0.13745706,0.18779269,0.25730950,0.03866622,0.09919511,
-0.13859104,-0.14923811,-0.20191190,0.02924110,-0.06272014,0.01646967,0.07762958,0.08730616,0.02572406,-0.19282101,
0.00196330,-0.05523656,-0.05572325,0.27189431,-0.13117743,0.00626059,0.07970448,0.21953118,0.25977057,0.05925584,
0.16811118,0.48173419,0.24428220,-0.15000527,0.31094980,0.02846595,-0.01842131,-0.18114479,-0.11761118,0.04743300,
0.00447745,0.04021481,0.04686188,0.20516133,0.16052276,-0.08071850,0.04091410,-0.13683155,-0.48378798,0.27385494,
-0.23059256,-0.06898618,0.20656818,0.02613156,-0.13937584,-0.21009228,0.05827221,0.39226839,-0.34387764,-0.04604603,
0.21458495,0.22024256,-0.23384832,-0.11996543,0.15909632,-0.09073449,0.07878817,0.23094474,-0.29753298,0.04112494,
0.00406017,-0.05614856,-0.48385167,-0.28227362,-0.04055842,0.17420401,0.07103299,0.03517690,0.07096076,0.39200848,
0.02587606,-0.26324081,0.09933160,0.20412645,-0.34428835,0.19591154,-0.08539115,-0.09556629,-0.02324146,-0.70017719,
0.30093738,0.24222803,0.05323017,-0.07083883,0.27463362,-0.13328271,0.39489338,0.04660311,-0.59318155,0.11869805,
-0.22175425,-0.06845631,0.11239606,-0.13420449,-0.24209151,-0.07287949,-0.40332317,0.19735548,-0.21482643,0.09960593,
-0.98348719,0.27750927,0.13550593,-0.12243718,-0.01625914,-0.14780973,0.17015862,0.04666910,-0.03864069,0.06360944,
-0.81573784,0.26520520,-0.27095523,-0.41506848,-0.06683362,-0.02569854,-0.08574709,-0.38274622,0.12090527,-0.10642172,
-0.02556088,0.05022584,0.19556515,0.12416203,0.13981365,0.16593276,-0.00176378,-0.01158916,-0.20439553,-0.30013582,
-0.14598045,-0.06341035,0.04982099,0.14593154,0.09808481,0.23070849,-0.07372866,-0.30173841,0.11183864,0.01537689,
0.02822887,-0.01082622,-0.28454223,0.08989878,0.05247355,0.08318965,0.19901425,-0.00704137,0.15401079,0.12954520,
-0.14537700,-0.06089344,0.17246698,0.15457244,-0.09109405,-0.29228824,-0.14291762,0.04465813,-0.21690862,-0.08876447,
-0.04724066,-0.29414976,0.19645886,-0.11344811,-0.13083261,0.03802822,-0.26331285,0.18277095,-0.19442743,-0.05806827,
0.32859346,-0.00966842,-0.23177432,-0.27809897,0.10003910,0.02086745,-0.35192078,-0.08286565,0.02725726,0.09858534,
-0.15018934,-0.15656731,0.18139830,-0.13676700,0.20928024,0.31246194,-0.04806634,-0.08455878,0.07719376,-0.04268004,
-0.31192812,-0.19865569,-0.07725743,0.14274956,0.06241212,-0.02592612,-0.07302301,0.06210101,-0.25163096,-0.12401159,
0.08168297,0.23199604,-0.23766682,0.20177275,-0.10941701,-0.13219184,-0.03968043,-0.54374754,-0.12731484,0.27362177,
0.16944250,0.02245934,0.17626305,-0.06212937,0.14874077,-0.06042222,-0.40754554,0.04972913,-0.07592595,-0.16069841,
0.10382095,-0.01146913,-0.26673919,-0.05121506,-0.17830449,0.14597060,-0.39459687,0.08644905,-0.52322221,0.16762616,
-0.32024482,-0.04262065,-0.04747462,-0.19073355,0.14046404,0.19301355,-0.09102646,-0.10003746,-0.57485521,0.16298050,
-0.41180074,-0.21119857,-0.04040221,-0.00277716,-0.05697356,-0.24027613,-0.03646659,0.09056566,-0.07335193,0.05501285,
0.24909271,0.22496705,0.21237808,0.03728036,-0.11987575,-0.01334757,-0.12784323,-0.22271509,0.17952564,0.06657692,
-0.03449689,0.04343858,-0.33134964,0.11806121,-0.07727808,-0.03943320,0.13664021,0.01222378,-0.06287903,-0.06608295,
-0.19675896,0.23851718,0.30420452,-0.24703869,-0.33595324,-0.20472457,-0.03591225,-0.16134095,-0.10745627,-0.04491461,
-0.05487034,0.40406263,-0.00902058,-0.09182812,-0.06929725,0.02214177,-0.04715970,0.01764979,0.06617882,-0.66532600,
-0.08196430,-0.60500687,0.15973870,-0.07416490,-0.05098645,0.50762892,-0.16074023,-0.54298943,0.10925371,0.05887223,
-0.15256104,-0.53364849,0.19499592,-0.23194619,-0.11046636,-0.02057765,0.42007512,-0.26925713,0.09504832,-0.29216650,
0.11776364,-0.24219045,0.07344408,0.03183194,0.02648465,-0.04046969,-0.04728814,0.25637069,-0.59985262,-0.08162714,
-0.03080952,0.01163327,0.07045826,-0.04741545,0.10744094,-0.07879296,-0.27277002,0.07507916,-0.17237550,0.02694651,
-0.16459349,-0.03718172,-0.52532917,-0.02439911,0.05805897,-0.51898444,-0.03983100,-0.21342739,0.11270867,0.19071701,
0.03439578,0.26966786,-0.35481426,-0.05904437,0.01739481,-0.12705562,-0.11640713,-0.18289338,-0.02762665,0.09399135,
-0.21958701,-0.06690947,-0.04194341,-0.18546908,-0.28087664,0.08347870,-0.41018650,-0.00591427,-0.47180712,-0.06835609,
-0.15535787,-0.22584888,0.00059163,0.21848546,-0.22660686,-0.23666637,-0.18538630,-0.25614351,-0.47003877,-0.02058806,
-0.14782917,0.18385486,-0.14979145,-0.08242909,0.20884132,0.04410306,-0.11340590,-0.07359308,-0.20323732,0.35432068,
0.11142515,0.32855976,0.27967632,0.06779757,0.14048097,-0.00894986,0.26298961,-0.05617002,-0.00756906,0.03085388,
0.04358121,0.11411998,-0.02696691,-0.19574326,0.13382038,0.01102844,-0.08725441,0.17376225,-0.05076702,-0.09815825,
0.30649945,0.08565135,-0.30501238,0.20611113,0.09746751,-0.08125935,-0.14319517,-0.08208039,0.06622510,0.24400273,
0.08082125,0.19220971,-0.03965571,0.00298908,0.10538036,-0.02056328,-0.02039017,-0.32931125,-0.28201401,-0.33276057,
-0.14586517,0.04849011,0.23848331,0.37555155,-0.23153012,-0.47200066,0.17407478,-0.08510841,-0.11564625,-0.30799761,
0.03878548,-0.07219829,-0.13326623,0.01265138,0.28282931,-0.10684040,-0.17633362,-0.04265833,0.11473402,0.01903544,
0.00470890,-0.13961448,-0.04443469,0.06459938,-0.25312489,-0.08762780,-0.55191976,-0.04579161,0.02071172,0.16044912,
-0.01293647,0.04176226,-0.03628919,-0.02289533,-0.20055462,-0.07152154,-0.00639859,0.09588192,-0.17250156,0.06667323,
-0.41272473,0.03652576,-0.06737997,-0.43288594,-0.39569864,0.02350619,0.15708739,-0.08126467,0.02301842,-0.03178351,
-0.27751547,0.02673116,-0.18584548,-0.62222153,0.03549863,0.01242096,0.17634936,0.06133226,-0.23293887,-0.08841064,
0.18308526,0.10704581,-0.21048164,0.13767271,-0.14487410,0.00163506,-0.23521766,-0.28934845,0.09414469,-0.24470052,
-0.24196778,0.18610880,0.13081163,-0.30697075,-0.13972645,-0.46043175,-0.08138690,-0.01105717,0.30405197,0.14499506,
-0.12387710,-0.02766949,0.18695231,-0.21755299,-0.14815556,-0.08746263,-0.07153700,0.18316308,-0.31746995,0.17096317,
0.40271267,0.07072432,0.21477222,-0.00122780,-0.10605074,0.05232497,0.02503464,0.23083329,-0.06647199,0.18582140,
0.01694154,-0.15593719,0.39953470,-0.02240741,0.01978517,0.08067902,-0.02313257,-0.31644094,0.24720623,0.10423982,
-0.32061750,0.19159150,0.07480959,0.16178659,-0.34337726,-0.32310531,-0.24383390,0.03968505,0.12657280,0.24918111,
0.11982641,0.04242872,0.22365180,-0.07225160,-0.00150669,-0.04686479,-0.12413426,-0.06946444,0.16227250,-0.04548093,
0.42913586,-0.00551665,-0.34727895,-0.09438496,0.01539026,0.07150943,-0.07654656,-0.41425326,-0.15852901,-0.22781956,
-0.04863998,0.05324539,-0.18679561,-0.11443605,-0.39585984,0.08853067,-0.06826088,0.00648932,-0.10800019,-0.30097839,
-0.11349774,-0.08224336,-0.23534730,-0.39596137,-0.15385039,0.22958402,0.01747434,0.08181639,0.11833669,0.06484777,
-0.26563227,0.07340159,-0.29633319,0.01406421,0.29746506,0.12062231,-0.33670196,0.28643969,-0.27229154,0.00976650,
-0.03203937,-0.06056086,-0.69128603,0.17987646,0.15823624,-0.22215778,0.09265593,-0.01254911,-0.35166410,-0.02763824,
0.00142806,-0.23206687,0.12163600,-0.06427073,-0.03954250,-0.07372289,-0.05526277,-0.10290836,0.21261439,0.25591114,
-0.22878522,0.05836862,0.36272231,-0.08156563,-0.35356408,-0.01229137,0.10865883,-0.36502448,-0.26586935,0.15966482,
0.17558862,-0.24223863,-0.09446865,0.02194682,-0.00163981,-0.06876674,0.61905807,0.23116297,-0.05408849,-0.15523657,
0.30014458,0.07978028,0.08084895,-0.07469797,-0.04848349,-0.13177779,-0.25812262,0.09484557,0.30107570,-0.09762693,
0.51881230,-0.17728692,-0.36721367,0.07613755,-0.01048239,0.28666407,0.08129101,0.15339577,-0.04435703,-0.04224877,
0.27968681,-0.04151910,-0.07675501,0.04246540,0.00425081,-0.23652317,0.32683852,-0.04355724,-0.22740711,0.19449282,
0.08154301,0.00983245,-0.32879817,-0.49781027,-0.40541720,-0.20115508,0.34166747,0.05637399,0.38602325,-0.04623668,
0.20382129,0.07222838,0.02866647,-0.06959301,-0.10336715,-0.14622723,0.05463780,0.04123767,0.48767763,-0.00054045,
-0.04526601,-0.07653023,-0.19590421,-0.04803307,-0.06779392,-0.31931177,-0.34173846,-0.05626100,0.07663249,0.05327260,
-0.19439124,-0.08504121,-0.07980678,0.10764673,-0.32664546,-0.02021117,0.14807820,-0.60680103,0.05842766,-0.00457719,
-0.14219496,-0.17355141,0.02227584,0.26273251,0.04149947,-0.35300919,-0.07806639,0.01598663,-0.29093382,0.17120382,
-0.20423815,-0.06293312,0.21073338,-0.03375017,-0.30110806,0.10497142,-0.15501337,0.19383363,-0.05682695,0.00820578,
-0.41781753,-0.05720677,0.21022882,-0.03761630,-0.21606521,0.11787250,-0.48317781,0.00172661,0.00570144,0.00875550,
-0.12855859,-0.11676199,-0.28573152,-0.03272468,-0.03187680,-0.06421605,0.20885372,0.17979613,-0.26726449,-0.09654222,
0.30881616,-0.08394830,-0.51256639,-0.05234513,0.14467892,-0.13553692,-0.58460444,0.13994314,0.11408343,-0.41265213,
-0.17742455,0.03419879,-0.07175276,0.08212778,0.55580419,0.09518009,0.09900161,-0.08176193,0.10694646,0.38254663,
-0.14848928,-0.06437203,-0.22246152,-0.01673881,-0.22895005,0.09614323,-0.06236673,-0.14643921,0.47858554,0.17437999,
-0.08665387,-0.05639232,0.01573651,0.29803109,-0.26026031,-0.29414001,0.05056837,-0.05417116,0.01512694,0.01476339,
0.04858499,-0.17545477,-0.10504003,-0.21011391,0.29286954,-0.22938356,0.12342471,-0.04736699,0.15515579,-0.33036110,
-0.37380555,-0.22463489,-0.20459983,-0.06800244,0.21744657,0.14070736,0.08239132,-0.02634431,0.19176193,-0.00541115,
-0.04679981,-0.32953042,-0.00471148,-0.35777763,0.03403639,0.11025056,0.55649406,0.50707591,0.49276856,-0.35072780,
-0.12701266,-0.02540828,0.08543924,-0.51591605,-0.12040139,-0.10039741,0.43243971,0.09508699,0.04824078,0.01808260,
0.17661838,-0.05094266,-0.30567887,-0.14331964,-0.14088574,-0.18832567,0.09969871,-0.04258870,-0.23719184,0.12138364,
-0.31787485,0.09215333,0.06008076,-0.28250831,0.00845227,0.04759431,-0.03440007,-0.11396386,-0.22213572,-0.03476158,
0.00944097,-0.12163984,0.01153241,0.08253334,-0.19540213,0.16986051,-0.00235222,-0.05066002,-0.03953669,-0.40660697,
-0.05400206,0.15114000,-0.42823043,0.27015737,-0.39511594,-0.05639762,0.11249446,-0.20263954,-0.01948584,-0.32359353,
-0.15335877,-0.31683519,-0.08309437,-0.09058509,0.22167079,0.01042695,0.08818103,-0.15824740,0.28428811,0.16378993,
-0.33491787,-0.01699284,-0.20714670,-0.18458958,-0.27183431,0.06168916,0.08320892,-0.30174604,-0.04207426,0.18808220,
-0.19428244,0.27009803,0.51048672,0.29141313,0.00362259,-0.00400491,0.03254429,0.35338661,-0.10757017,-0.06914791,
-0.00857333,0.15434256,0.08766679,0.13278909,0.05866959,0.03449475,0.24710810,0.14079754,0.22522894,-0.00032624,
0.08075842,0.03817075,-0.40632823,-0.33384237,0.19377905,-0.07805194,0.21533646,-0.01677030,-0.03273967,-0.34726739,
-0.02478980,-0.20003158,0.12443426,-0.02864338,0.07500837,0.00579677,-0.00614255,-0.14084131,-0.08025201,-0.14945556,
-0.07712675,-0.05950568,0.28417900,0.10370485,0.43668950,0.04994272,0.22648217,-0.05748995,-0.06144885,-0.24446055,
-0.03115204,-0.22134912,-0.06586490,-0.03176246,0.25344267,0.37315816,0.05232739,-0.12101776,0.16306838,-0.01633139,
0.11637884,-0.52244526,-0.10068216,-0.13174100,0.32631627,0.03592219,0.17566571,-0.21174742,0.06376754,-0.12010042,
-0.24555781,-0.00856121,-0.06633034,0.03720659,0.12154163,0.02789243,-0.08763558,0.04045374,-0.41656870,-0.05828782,
0.02979684,0.03906327,-0.08620009,0.07056240,-0.17129312,-0.03242281,-0.16645384,0.12092430,-0.04581240,0.12207288,
-0.02644606,-0.09441231,-0.06074322,-0.03793503,-0.03731890,-0.09046771,0.23380460,-0.39165297,0.02992135,0.11256701,
-0.42220438,-0.08892055,-0.34558812,0.01314562,0.07470700,-0.19912678,-0.05968043,-0.20426446,-0.00910050,-0.22959818,
0.05288209,-0.06317889,0.17449659,-0.30757377,-0.28883460,-0.17185196,0.10383284,0.02274185,-0.25638342,0.13396929,
-0.44173920,-0.14422664,0.01402476,0.04528266,0.00192411,0.08299846,-0.22575121,0.08442292,-0.06795491,0.11171451,
0.07670970,0.29880777,0.00853778,0.09415404,-0.06998920,0.20502679,0.16042165,-0.06633160,0.02033445,0.10288450,
-0.03922781,0.16444518,-0.02517026,-0.26289409,0.35732108,0.23782760,0.23670809,-0.06676871,-0.06599239,0.40184677,
0.16838124,-0.03176489,0.17176272,-0.02746706,0.34287870,-0.01459305,0.04811423,-0.03514655,0.05065557,-0.49758217,
0.24596412,-0.10972504,0.07848830,-0.00237450,0.04938700,0.16247536,-0.26392576,-0.44216719,-0.12632236,-0.18399367,
0.11901575,-0.16358976,0.12481561,0.01007254,0.18469474,0.02499846,-0.06250123,-0.19906043,0.08544508,-0.04445310,
0.04174227,-0.04176674,0.31690761,0.17088245,0.05224191,-0.20865123,-0.23204774,0.07263388,-0.05403529,-0.21010505,
-0.00805405,0.04561341,-0.07340005,0.03578656,-0.22004643,0.02338808,-0.16775712,0.15014857,-0.33961228,0.17173856,
0.29221806,-0.15027665,-0.00101400,-0.03780159,0.04912364,-0.18058923,0.06990274,0.12758040,-0.01130811,0.09006113,
-0.01046269,0.01617670,-0.42729989,0.33108354,0.06043429,0.04454939,-0.18910663,-0.08369298,-0.14493841,0.16855176,
-0.15420574,0.13800292,-0.00465906,-0.00854651,-0.01139610,-0.21915047,-0.01481648,0.09831087,-0.22644830,0.29584846,
-0.18332614,-0.03988476,-0.03796753,-0.07556848,-0.07310225,0.01321098,0.00914040,-0.19697091,-0.04944759,0.08590693,
-0.22895236,0.25946745,-0.31066632,-0.08206726,-0.35552591,0.25009495,-0.16112210,-0.10624763,-0.13810359,-0.06350486,
0.37797537,-0.06323213,-0.30361736,0.07356752,-0.22220442,-0.00533930,0.19835031,-0.29055345,0.16596568,0.20755103,
0.08678039,0.02681498,0.06811345,-0.10245264,-0.06736747,0.02215904,0.14254731,-0.09386621,-0.02861259,0.13364230,
0.00246516,0.15257333,-0.27440193,0.21793804,0.25020584,0.00865327,-0.06057732,0.38504013,0.34120119,0.34386051,
0.05031957,0.00119033,0.28551704,0.02248375,0.05593576,-0.35790604,-0.07540950,-0.14959197,0.15158026,0.16242772,
-0.03485813,0.13790779,-0.10124132,-0.18152130,-0.21608040,-0.17077461,-0.04959384,-0.10486323,-0.12131360,-0.30037522,
-0.09117775,0.02200265,-0.14516065,0.00358039,-0.06747504,-0.24937274,0.07775832,-0.26036930,0.22570358,-0.07363524,
-0.41977060,0.14089325,-0.38478008,-0.00818685,0.26812688,0.00257884,0.14607166,-0.26134774,-0.15982239,-0.07641122,
-0.35073009,0.01135530,-0.27456963,-0.26742598,0.09857184,0.04339311,-0.12268823,-0.05972230,0.37703919,0.04345042,
0.42660823,-0.07738449,0.10080439,0.13606191,-0.24057378,-0.35918301,-0.02476086,-0.01130095,-0.13436316,-0.02207194,
0.05242794,-0.32542002,0.17308342,-0.30326775,-0.10998753,-0.08157682,0.19367816,-0.03433220,-0.19540310,-0.00628216,
0.07298861,-0.16626398,0.30636397,-0.23309036,0.07885994,-0.29280031,-0.13395281,0.27016258,-0.02989920,0.02274298,
0.08907498,0.07236440,0.05888145,-0.15192899,0.00238689,-0.04279552,-0.02799298,-0.07471821,0.02673529,-0.11182972,
-0.12328625,0.05479329,-0.24605627,0.22797683,0.11954035,-0.00666625,-0.26163217,-0.00768209,0.19647875,0.12302835,
-0.30702299,0.17914607,0.02411472,0.18286945,-0.17660399,-0.34433457,-0.18849623,-0.01130413,-0.06867270,0.02287369,
-0.10788079,0.43980256,0.24297658,0.02687449,-0.01347583,-0.00125130,0.31935543,0.15897270,-0.00735695,-0.26197115,
0.27987295,0.44982129,0.27894118,0.06527696,-0.03963375,0.04511440,0.24483317,-0.35659012,0.01038485,0.03488671,
-0.30056223,0.04602707,-0.02615702,0.25912231,0.07139135,-0.32980463,0.00477426,0.28674757,0.08818730,0.01272474,
0.19196947,0.08238445,0.25921914,-0.02831787,-0.37375775,0.01529015,0.01085365,-0.08095282,-0.21537369,-0.03368906,
0.16633348,-0.07649606,0.01967812,-0.01780739,0.00907605,0.23335618,-0.26607659,-0.02152706,0.12948750,0.19211791,
0.09572058,0.01626473,0.01427220,-0.05884726,-0.04245586,-0.00641455,0.01490024,0.07415316,-0.00334161,-0.05360014,
0.34293219,0.28873616,-0.11206000,0.02392998,0.00628280,-0.15615305,0.17879568,0.01858939,-0.05836357,-0.00656394,
0.25375617,0.04352640,0.02942128,0.29909626,-0.07289464,-0.27451974,-0.21645205,-0.03397343,-0.02051441,0.33824572,
0.32062054,-0.22255392,0.07455929,-0.13835669,-0.07830437,0.02239423,0.02435338,0.07878300,-0.05787437,-0.08530618,
0.19406329,-0.05468109,-0.01358711,0.00656915,-0.03645512,0.01127883,-0.04172902,0.07501031,-0.27282035,0.09516130,
0.11919335,0.04010627,0.35093418,-0.04011216,0.30681157,-0.00455304,-0.16221189,0.45331404,-0.42046234,-0.05351367,
-0.31467989,0.26462403,-0.36848658,0.21998081,0.06677823,0.03732604,0.19443601,0.08378625,-0.19481972,0.02706945,
-0.11087530,-0.06347704,-0.23307075,-0.11088203,0.28475231,0.10667446,-0.03927919,0.03304558,-0.17911522,-0.23791061,
-0.18763214,0.04465667,0.06945649,-0.15564126,-0.30603603,0.02174974,-0.02016971,-0.48759574,-0.12633701,0.16329698,
0.35308141,-0.06630220,0.06426501,-0.06297909,-0.00397568,0.10988709,-0.08700728,-0.07132714,-0.05330402,-0.01519486,
-0.07114448,0.45861009,0.08536194,-0.01692737,0.00914611,0.01517816,-0.04607046,-0.07189109,0.48996708,0.28268924,
0.24543484,-0.10784368,-0.23524936,-0.15640451,-0.38978988,0.05800816,0.17007424,0.04247228,0.03435955,-0.07214209,
0.03619418,0.09079009,0.07136354,0.38934273,-0.14220341,0.03364936,-0.02541329,0.08989518,0.38272056,-0.05236989,
-0.08108150,-0.02391486,-0.08944738,0.12749825,0.05318260,-0.21285385,0.31391835,-0.11420747,0.05631173,0.23964936,
0.08270880,0.18575467,-0.06742807,-0.03811378,-0.03688631,-0.17318441,-0.11028612,0.00999129,-0.16830124,-0.13923772,
0.31232041,0.28485811,0.06843119,-0.23777656,-0.15180747,-0.03566798,-0.01981580,0.43372652,-0.12370652,-0.12757301,
0.04640335,0.00316521,-0.22652888,0.05826737,-0.06676181,0.01261505,0.03463932,0.24533978,-0.26854247,-0.29549229,
0.02630670,0.27728900,-0.33446100,-0.09982072,-0.07250037,0.00806332,-0.05501877,0.01647685,0.14840539,0.08630136,
0.08756504,0.09447179,-0.02150557,-0.02463625,0.28535292,0.43772510,-0.43782747,0.18368819,0.27018207,-0.07717458,
-0.23275115,-0.04690834,0.36442193,-0.06936902,-0.05224781,-0.01012959,0.52920401,-0.43995357,0.09883307,-0.18872428,
-0.03424128,0.16431734,0.05218010,-0.21558280,-0.10063753,0.00223453,0.04264599,0.17642732,-0.05885178,-0.08680056,
-0.11376807,-0.02826254,-0.38846022,-0.04614364,-0.28552672,0.15139635,-0.18443656,0.06462451,-0.01625985,0.06696727,
0.07541168,-0.15903041,-0.13660578,0.08834086,0.03372984,-0.21680874,-0.26630166,0.04291623,-0.09938740,-0.16992547,
0.17738403,-0.02750384,-0.04714553,-0.24458677,0.05130980,-0.33749563,0.19119902,-0.41920641,-0.39399731,-0.27972412,
-0.08183006,-0.00946726,-0.18940352,0.02803023,0.03182274,0.01057039,-0.11294258,0.03921837,-0.08530557,-0.43957353,
-0.07682945,-0.27124479,-0.03955214,-0.06454740,0.07977735,0.27312225,0.46084467,0.01757247,-0.19976795,0.07175461,
-0.03231846,-0.38967511,0.22652449,-0.37972832,0.29930681,-0.01072785,0.03723014,0.08700342,0.09219106,0.04619427,
0.09688347,0.00450868,0.03073478,-0.23325096,0.18853611,-0.07706977,-0.30916625,0.16330568,-0.14926951,-0.01341324,
0.04480802,-0.05280582,-0.17585009,0.05024586,0.02607135,0.01953276,-0.19580626,-0.00762978,0.02553349,-0.28009829,
-0.18347354,-0.29601631,-0.18037035,0.08602668,-0.04636448,-0.16294000,0.05538185,-0.23691665,0.07991478,0.24009910,
0.08192869,0.19321193,-0.26328951,-0.00363669,-0.26303366,-0.09215108,-0.06562182,0.09890009,-0.24112517,-0.20799227,
-0.07019020,-0.09529679,0.05536558,0.03490645,-0.25907969,0.21524584,0.03085916,-0.00670883,-0.41330922,0.02939421,
-0.39196292,-0.24539101,-0.15692969,0.01534284,0.21994326,-0.03534163,0.08291328,-0.11624342,0.12835546,0.17256592,
0.18714081,0.06794062,0.08475263,-0.06570079,0.31407344,0.24123330,0.22346854,-0.05457423,0.13082238,0.16099769,
0.15806663,0.22209671,0.10433205,0.32248482,-0.11066908,0.08687882,-0.18902650,0.07189738,0.02810834,-0.04055531,
-0.20977968,0.42656279,0.14012034,-0.21799538,-0.08742320,-0.06729493,-0.07923733,-0.49039692,0.04573811,-0.09248639,
0.12991370,0.27849117,-0.25929642,0.24965379,-0.15787172,-0.83167237,-0.42458728,-0.11781891,-0.28972650,0.09206999,
0.27700192,-0.07214934,0.02038362,-0.05855481,-0.28566864,-0.02554880,-0.02348632,-0.56868243,-0.01680316,-0.32017297,
0.08037509,-0.10531368,-0.35825548,0.50227994,-0.12123680,-0.01615625,-0.34821293,-0.00617139,0.27250713,-0.71504068,
-0.26681936,0.05885773,-0.05082737,0.01367184,0.17141634,-0.33030564,0.28543997,-0.06085503,-0.12077235,-0.32607317,
0.01856137,-0.04535334,0.30753514,-0.02150252,-0.31129393,0.30226424,-0.50630432,-0.25996503,0.04763197,-0.12229017,
-0.26444608,-0.00193030,0.01467320,-0.06154428,-0.34246215,-0.21787430,0.13350874,-0.31068406,0.27968672,-0.30876070,
-0.27544063,0.20413209,-0.03835637,0.07024058,0.17569862,-0.28276816,0.02537763,0.06124443,-0.07556010,0.26801938,
-0.38813084,0.02697456,-0.11116364,-0.10946955,-0.17096044,-0.24878708,-0.06973989,-0.06307621,0.04306271,-0.06672283,
0.00006297,-0.15675582,-0.48020768,-0.18588753,0.31769308,-0.05902884,-0.50716424,-0.00801969,-0.65189439,-0.38842475,
-0.13009295,-0.00604567,-0.05131581,0.15434618,-0.05114401,-0.00081242,-0.20874301,-0.08152047,-0.02697547,0.21920845,
-0.11183943,-0.19613393,0.24486159,-0.05106496,0.02364300,0.08620320,-0.21270053,-0.12904617,-0.15768093,0.11680251,
0.27329940,0.06351371,-0.01249547,-0.14880891,-0.43954521,-0.04083060,0.00512400,0.21513155,0.10836068,0.23944198,
-0.01733467,0.17617850,0.05183065,0.07803153,-0.10018128,-0.14183114,-0.03977032,0.14713179,0.04864452,0.16198064,
-0.31824526,-0.13669100,-0.18263867,-0.17778249,-0.48862478,0.15191483,-0.06965324,0.09398594,0.23793331,-0.05470633,
0.31284913,-0.06210066,-0.08137194,0.03571465,-0.06786472,-0.51682556,-0.11341058,-0.02535418,-0.36659452,0.12048016,
-0.14033429,0.24075681,0.04503663,-0.09994005,-0.16617455,0.01924998,0.12698065,-0.53917307,0.08523037,-0.04343405,
-0.07874843,0.01465072,-0.07658367,-0.23050599,0.06244448,-0.03372507,0.05780886,-0.35539067,-0.20224117,-0.04029782,
0.02544638,-0.05807605,-0.39772907,0.13644600,-0.19753014,-0.05983001,0.00959010,0.24269211,-0.12459128,0.05850845,
-0.30439559,-0.10575613,0.07066798,-0.21398005,0.10447814,-0.15188041,-0.04776658,-0.30060112,-0.13890024,0.29187757,
-0.01036301,0.07811486,-0.51320106,0.28337997,0.22597919,0.02032322,0.06555045,0.04189365,0.13080081,0.01243550,
0.17799377,-0.24510059,-0.09732192,-0.14585924,-0.05883963,-0.11108929,0.00686221,-0.01680223,0.07128114,-0.14586163,
-0.24204303,0.09036988,0.63043875,-0.10085282,-0.47010493,-0.01252362,0.00766194,-0.20582217,-0.34331071,-0.04677704,
0.19086884,-0.22779305,-0.01425274,0.24005036,-0.49573141,0.22378094,0.33228046,-0.14418465,-0.04554571,-0.01361722,
0.32190207,-0.08889474,-0.42489445,0.08631457,0.05841637,0.07854613,-0.22054695,0.11567808,0.22240084,0.19427061,
-0.13569762,-0.14056298,-0.16851512,0.02589054,-0.04162911,0.16930954,-0.25032952,0.13707170,0.02164057,0.13687013,
0.20414031,-0.02052813,-0.03054323,-0.04743128,-0.03695091,0.07204923,-0.02780925,-0.28438431,-0.50397551,0.03039391,
-0.21008098,-0.10939406,-0.66170615,0.28865907,-0.20733835,-0.10432468,0.16060112,0.03942142,0.28632700,0.06720460,
0.02406459,-0.03218540,-0.06178109,-0.56199181,-0.31426504,-0.09850986,-0.01400720,0.10820249,0.14626785,0.06218306,
0.08781537,-0.10566974,0.02379026,-0.01787696,-0.00140910,-0.87758642,-0.00340253,-0.31202033,0.10834973,-0.06536840,
0.07527217,-0.35954022,0.08394996,-0.06479476,0.00505934,-0.29423124,-0.21073011,-0.22423050,0.13122304,-0.07743119,
-0.35813817,-0.02904025,-0.08367403,-0.03468187,0.05493304,0.06917896,-0.27491486,-0.06816746,0.15927212,-0.23843695,
-0.14351131,0.07306740,-0.30940801,-0.01754059,0.05602911,-0.29527315,-0.25529125,0.12009627,-0.03138347,-0.18816383,
-0.49063665,-0.08555394,0.15986641,-0.05412294,0.02873170,-0.06623469,-0.32890591,-0.02865392,0.21414195,-0.26655337,
-0.43909556,-0.05220362,-0.33000052,-0.00812946,-0.16219911,-0.06920800,0.07218262,-0.21502206,0.24942248,0.19517383,
0.22229348,0.01390564,-0.37375471,-0.02892316,0.18491401,-0.15750103,-0.31946036,-0.03606642,0.16898504,-0.05549420,
0.07295163,-0.01235766,-0.19958019,0.40929905,0.40588698,-0.07447640,0.09222563,-0.19089077,0.24926005,-0.24824831,
-0.15861453,0.02300195,-0.24885066,0.16592796,-0.07809506,-0.14408891,0.09681855,-0.05985831,-0.09314305,-0.22431202,
-0.07908070,-0.06729431,-0.05305882,0.05336271,-0.04345053,0.13765754,0.00903056,-0.10840634,-0.03173840,-0.06907016,
-0.07613008,-0.11920404,-0.08247679,0.41505331,-0.15227664,-0.27751032,-1.00775540,-0.02421029,0.23765853,-0.37239352,
-0.12892950,0.33240089,-0.11498683,-0.13936993,-0.09889170,-0.10012872,0.02384024,-0.07726498,-0.14503092,0.06224107,
0.05771520,-0.50925732,-0.56714982,-0.34994164,-0.07719496,0.06664032,-0.05615904,0.05334678,0.48660809,-0.42340514,
-0.10801847,0.04590822,0.00211052,-0.58498043,0.20770179,-0.36209986,0.14662477,-0.11043113,-0.10658804,-0.22525996,
0.17384619,-0.01590507,0.03419519,-0.00219085,-0.16059248,0.27528968,-0.12979333,-0.01769313,-0.22462420,-0.21540689,
-0.34214476,0.08385275,-0.00363758,-0.01550010,-0.21486512,-0.01698448,0.14825286,-0.28210074,-0.15361480,0.14318623,
-0.41263974,-0.08231822,-0.05827512,-0.29275060,-0.24617594,-0.13421595,0.01388088,-0.41228500,-0.46431416,-0.09134012,
0.14267647,0.02966923,0.16448264,-0.05044018,-0.28260809,-0.04021590,0.18281487,-0.49992660,-0.41166040,-0.02607758,
-0.11883575,0.08843384,-0.26060376,-0.05192972,0.01447428,0.09986649,-0.09150381,0.13982302,-0.23684111,-0.25815392,
-0.32908463,-0.26836419,0.21775772,-0.10379680,0.05531430,0.03515578,0.19754177,0.17962271,-0.23793475,0.23284286,
-0.03286716,0.18523729,0.32151034,-0.21895707,0.11509002,-0.28089574,0.26019427,-0.09432381,0.23684056,0.02870165,
0.07754746,0.08491383,-0.04093055,-0.01667463,0.00871971,0.26446649,-0.12852183,-0.73800033,0.04219859,-0.03548404,
-0.06495704,-0.18109293,-0.03433476,0.29625022,0.07830793,-0.11221272,-0.03081341,-0.03342163,-0.10703167,-0.25979620,
-0.25561711,0.23066001,-0.19342443,-0.18072592,-0.33168650,-0.08447678,0.35786071,-0.46814322,-0.38167706,0.36947834,
-0.24754478,-0.03488990,-0.10865826,0.01180178,-0.17606139,0.00822690,-0.25620192,0.03446675,-0.09800394,-0.56314492,
-0.77356350,-0.37474495,-0.42590564,-0.06328873,-0.21175157,0.14328432,0.55009252,-0.22525761,-0.17305423,0.03853948,
-0.06569796,-0.49030435,0.07667658,-0.17250434,0.30232611,-0.02223810,0.21528471,0.00447281,0.12840880,0.02338724,
0.14602174,-0.19942178,-0.22566226,0.39230087,-0.07834417,-0.04960682,0.08099743,-0.27137902,-0.25525469,0.15757863,
-0.00300832,0.09069613,-0.23339505,-0.01437698,0.10648368,-0.31140089,-0.05110119,0.04764115,-0.17767550,0.08139852,
0.08768490,-0.13394761,-0.24648657,-0.16535589,-0.04776953,-0.14060234,-0.36384872,-0.24988623,0.14711893,-0.00906021,
0.11166447,0.03754365,-0.20425375,0.04605336,0.08459261,-0.28124923,-0.24606691,-0.01062343,0.14430329,-0.03887837,
-0.20383421,-0.05948792,0.01502335,0.23559815,-0.19142245,0.16555642,-0.31637517,0.11223102,-0.26702926,-0.08234420,
0.08757677,-0.13292113,0.04098195,-0.10336166,0.05951012,0.13619246,-0.19027603,-0.00052551,-0.24837117,0.19434300,
0.26355797,-0.12288202,-0.10564718,-0.13072583,0.10248210,-0.22479852,-0.29331645,0.03668815,-0.15225790,-0.15789084,
-0.05696680,-0.04663384,-0.25200582,0.40997738,-0.20930575,-0.28762713,-0.00398428,-0.02492558,-0.01156467,-0.30988660,
0.02537802,0.10122307,0.07109321,0.02296958,-0.07613896,0.05159974,0.01910588,-0.18529803,-0.15074886,0.09954679,
-0.44088903,0.10834779,0.18294454,-0.00337308,0.15361238,-0.41244125,-0.41131777,0.37689602,-0.09792608,0.03197432,
-0.15718590,-0.01341031,-0.19619273,0.02579321,-0.22378555,-0.07739086,-0.08557305,-0.91874361,-0.17446387,-0.28745222,
-0.41888428,-0.04456837,-0.03753037,0.06126135,0.07593277,-0.12024883,-0.03084967,-0.09690283,-0.09373546,-0.26806390,
-0.04169374,0.05756068,0.24203168,-0.10712486,-0.00975948,-0.14697805,-0.08441323,-0.17535870,-0.02232072,-0.15485518,
0.01410974,-0.07457363,0.09158172,0.07578879,0.01753243,-0.07266283,-0.21984200,0.03296880,-0.04265588,0.02087236,
-0.32016486,-0.08712257,-0.21358223,-0.15039614,-0.13268131,0.03596420,-0.03378115,0.07071732,0.12174122,-0.32598665,
-0.24918598,0.01185133,0.03634427,0.13938925,-0.16123399,0.07504568,0.16771185,-0.14132485,-0.04853591,-0.28646359,
-0.06705187,0.02528385,0.08420815,-0.55017000,-0.11948954,-0.22141762,0.08460222,0.07247750,-0.01295840,-0.09998184,
-0.22660658,0.38163856,-0.07651838,0.12430691,-0.09085540,-0.00535992,-0.20311676,0.02080912,0.14417537,-0.12854874,
0.11258537,-0.04240608,-0.02352058,-0.07767171,-0.05604001,-0.14318143,-0.15082023,0.24464284,0.42663497,-0.26666537,
-0.05908303,0.12569495,0.13388418,-0.17749116,-0.32036978,0.00998372,-0.02914809,-0.03006725,-0.10868410,-0.04997476,
0.08467220,0.19485898,-0.24852994,0.03810338,-0.09185720,-0.06573104,-0.08862066,-0.21842220,0.26387429,-0.04120134,
0.08734100,0.04286906,0.10952616,-0.03276690,0.01754090,-0.03256503,0.05593332,-0.09793244,-0.39494783,0.07558433,
0.06147905,-0.04976244,-0.02542306,-0.19759721,-0.03696381,0.21053873,0.18661974,-0.07617080,-0.11619668,0.01811162,
-0.13789709,-0.07069772,-0.17763020,0.06840635,0.03769829,-0.40706480,-0.00558680,0.12197043,-0.13806656,-0.14474498,
-0.23423982,0.05789511,-0.04383491,0.10801213,0.00204478,-0.07672393,-0.28242227,-0.57680547,0.00728364,0.07853411,
0.07019658,-0.01589019,0.10021131,-0.03703087,-0.04484825,-0.20873706,-0.00131943,-0.08952617,0.13184568,0.11395942,
0.05114821,-0.02095411,-0.04181840,-0.03934965,-0.06022079,-0.07144731,-0.02240936,0.22154965,-0.05518549,-0.06740087,
-0.14760499,-0.01705427,-0.08569174,-0.05750486,0.21901280,0.00435921,0.12566757,-0.26669636,-0.06310143,0.06114697,
-0.07194559,0.40993395,-0.05043170,0.11951948,0.10286821,-0.14350417,0.10846660,-0.36470026,0.16739096,0.04386452,
0.19275941,-0.47185144,0.13305272,-0.24665049,0.18303496,0.05599809,0.00567569,-0.10561535,-0.10703269,0.36885250,
0.20667858,0.13866118,0.05207670,-0.11304905,0.25763330,-0.05176056,0.19175114,-0.08143846,0.13938943,-0.09978389,
-0.13767187,-0.04247387,0.02696795,-0.18989703,0.06283026,0.02141620,0.26820087,-0.27041289,-0.04480359,0.11091843,
-0.05122672,-0.07966050,-0.04524016,-0.02155826,-0.10853890,0.05371653,0.03279671,0.04915565,-0.12269896,0.06502037,
-0.03433197,-0.13536984,-0.03211489,-0.07311469,0.02805793,-0.03861404,-0.15677463,-0.22552969,0.05151751,-0.19294178,
-0.00447660,-0.03648947,-0.04726646,-0.08397139,0.02627255,-0.08546735,-0.08864269,0.02858197,-0.13381925,-0.08361437,
-0.01224157,-0.15679358,-0.05947736,0.10198583,0.06829615,-0.23556568,-0.17704123,-0.20451555,-0.00170972,0.04384821,
-0.05422729,-0.02467863,-0.05533581,-0.23503636,-0.00813611,-0.05641147,0.09969728,-0.08331802,-0.08890703,-0.00268416,
0.08201025,-0.16188553,0.10565021,-0.10655075,0.11764484,-0.03612504,0.14043939,-0.07776445,0.10535253,0.00647783,
0.09442738,0.06738087,0.13156848,-0.16559580,0.09595441,-0.05930489,-0.04093081,0.17617579,0.11225984,-0.06265157,
0.00411193,-0.01067564,-0.14495322,0.07345404,-0.05917691,-0.05620955,0.07236881,-0.06231452,0.01927538,-0.15067872,
-0.13197891,-0.32552671,-0.05466760,-0.27657568,0.02573321,-0.08798222,-0.06003002,-0.00522944,0.08099098,0.38557136,
0.09832880,-0.10179688,0.02490753,0.02044401,-0.12816526,-0.09689960,-0.06552333,0.00509326,0.28737912,0.00958967,
0.05644317,-0.17788933,-0.11439172,0.02928698,-0.17749701,-0.19008571,0.13738149,0.11096716,0.04087618,0.18565154,
0.06482967,-0.23524907,0.07554150,-0.02025463,-0.02493799,0.03370515,-0.12778431,-0.03094034,0.03725170,-0.06129821,
0.17177120,0.07207602,0.14542207,0.08405951,0.21282041,-0.20444860,-0.20194705,-0.04217518,-0.01882921,-0.05032445,
