#ifndef DENSE2_WEIGHTS_H
#define DENSE2_WEIGHTS_H
#include <pgmspace.h>

const float dense2_weights[1280] PROGMEM = {
-0.32596043,-0.93689740,-0.30367747,-0.90635258,-0.91407233,0.61370951,-1.03024614,-0.63748854,-0.22992513,-0.21464199,
-0.77741522,-0.79891968,-0.54561269,-0.61492902,-0.33512670,0.18670504,-0.77120972,-0.02075762,-0.31827557,-0.12403406,
0.11924452,0.03378670,0.10006450,0.19588737,-0.02818587,-0.35417697,0.08711523,-0.20164517,-0.03702527,-0.11190291,
0.16364001,-0.06124938,0.13480935,0.03234901,0.14658552,-0.40094343,0.12040903,-0.64142078,0.21713431,-0.47071236,
0.04149241,-0.06323791,-0.27982712,-0.24180250,0.09663852,-0.31747416,0.04838170,0.17887498,0.42360988,0.02012499,
0.05984286,-0.02963802,0.09622645,0.10070127,0.11830787,-0.04581044,-0.13162903,0.07569326,0.00198408,-0.03122033,
-0.16399996,0.30849090,-0.34683144,-0.10854784,0.23520714,-0.21234597,-0.08179399,0.36211461,-0.49518433,-0.12574838,
0.23707627,-0.29657513,0.20545311,-0.04795041,-0.32226267,0.09628645,-0.08179770,-0.91385442,0.10771084,-0.06244487,
0.16231626,0.00761639,0.15251783,0.00072955,-0.02374265,-0.08604854,-0.07590877,-1.30933297,-0.21269797,-0.46512830,
0.25344652,0.05657976,-0.39139381,0.21135037,-0.37987894,-1.22299135,0.02012967,-1.24868917,-0.51341712,-1.44706237,
-0.09795491,0.01109968,-0.09261310,0.07978237,0.20363365,-0.11785631,-0.29108104,-1.12148046,0.31704339,-0.51601863,
0.16179122,0.26086438,-0.11780553,0.16934085,-0.44094506,0.44815853,0.06906604,-0.50851589,-0.62353337,-0.11893208,
0.30384293,-0.38851419,-0.31434521,-0.24513508,-0.27997559,0.08948961,-0.12161337,0.16662087,0.31946856,0.17962398,
-0.02615993,-0.10016906,-0.15113457,-2.26232982,0.06357911,0.40958065,-0.64302945,-0.15325502,-0.20403080,0.07151282,
0.21843782,0.06802994,0.24436183,-0.25917408,-0.14361179,0.18780351,-0.26878205,-0.59093863,0.16281290,-0.03015575,
0.07504944,0.15414397,0.16438790,0.05306702,0.05376319,-0.02662550,-0.05260660,0.10907979,-0.14355592,-0.10006045,
-0.13931805,0.00994713,-0.06799888,-0.07786505,0.15334873,-0.18817313,-0.04370750,0.07717101,-0.03026477,-0.19772227,
-0.36281195,0.06107315,-0.72642612,-0.51812315,-0.45415103,-0.26578188,-0.44109824,0.02947287,-0.65643167,0.32006654,
-0.08484869,0.16050836,0.10066002,0.17014201,0.12706868,-1.11518276,0.06438223,-0.22110689,-0.22592227,-0.17295587,
-0.21570113,0.10949166,0.00681387,0.51838320,-0.29153606,0.19014291,-0.30826515,0.25965878,-0.32984591,0.23427761,
0.31044367,-0.08567686,-0.32186425,-0.74772304,0.16806190,0.13214645,-0.12234139,0.05680519,-0.06762621,-0.44704965,
-0.63745201,-1.03941691,-0.22487310,-1.33589017,-0.01774164,0.39586776,-0.65953773,-0.54154915,0.42220461,0.16115488,
-0.69134384,0.21326892,-0.28452688,-0.53753126,-0.10669886,0.25606048,-0.58851629,0.25543520,-0.68790489,0.29009208,
-0.04841020,-0.05518236,-0.10879335,-0.14197648,0.02770172,-0.06107372,-0.12554204,-0.13342191,-0.07726273,0.09706174,
-0.01236479,0.16513485,-0.05433356,0.03109113,0.04560037,-0.02996073,0.00622060,-0.05301374,0.18205488,-0.01798934,
-0.06872821,0.07195560,0.11089002,-0.21314372,0.07320163,-0.02187434,0.07381478,-0.12847909,0.13840967,-0.02717320,
-0.21751466,-0.57671624,-0.06422819,-0.09231132,0.05824565,0.68022442,-0.46722955,-0.76560003,0.10884182,-0.42176694,
-0.10695788,-0.18124601,0.04402314,-0.12889133,-0.05825981,0.05095800,0.15419231,-0.66618735,-0.37325630,-0.67239904,
0.18239802,-0.20840323,-0.41394389,-0.19337106,-0.70240033,0.02397462,-0.25638941,0.22430845,-1.03580499,0.19678825,
0.04162698,0.19691381,0.05277424,0.22856632,0.02587979,-0.31668463,-0.01043059,-0.09822173,-0.02348973,-0.52024776,
-0.19228424,0.12514667,-0.16248038,0.03189760,-0.34197271,-1.40975463,-0.37080392,-0.88799375,0.20389311,-1.46926260,
-0.18066901,0.24381286,-0.39022326,0.25357881,-0.67110640,0.17311288,-0.29947853,0.28634667,-0.11032117,-0.04308568,
-0.26398662,-0.35210112,-0.00949240,-0.14922534,-0.05286985,0.06563574,0.00206991,0.10277589,0.01887121,0.11279442,
-0.18408017,-0.17586014,0.21440241,-0.13584633,0.17110719,0.07061351,-0.07441073,0.05543177,0.14667903,0.24379623,
-0.13476019,0.31413838,-0.04975557,-0.23542504,0.10395707,0.08567106,-0.42779240,-0.12038512,0.25196353,-0.55152577,
0.20442148,-0.42014840,0.14767534,0.14253516,0.06922100,0.14262414,0.24054298,-0.52733690,-0.36484817,-0.35334915,
-0.20168628,0.22625472,0.14805734,-0.70048404,0.16592224,0.41397202,0.02252308,-0.28543535,-0.36166036,-0.15343840,
-0.38233280,-0.13060452,-0.91651076,-0.65931177,-0.38700870,0.18115410,-0.26834038,0.18108457,-0.30472252,0.03567994,
0.26405644,-0.25531253,-0.24672468,-0.08163199,0.02363546,0.57638222,-0.09379570,-0.52835953,0.14268388,-0.48952049,
-0.41206440,-0.72625488,-0.55598736,-0.40197781,-0.49747384,0.97042656,-0.05187465,-0.41702318,-0.13242313,-0.61903101,
-0.12175713,0.49346295,-0.26371843,-0.14420685,-0.46113911,0.01554641,-0.41989881,-0.66510487,-0.64111888,-0.42188361,
-0.18502204,-0.07266688,-0.02045420,-0.14878939,0.18765661,0.01614278,-0.16358569,0.13795249,0.10897093,0.09484778,
0.09550161,-0.01078374,-0.11260732,-0.12151121,0.10732166,-0.06279540,-0.12456667,-0.13806848,0.22696716,0.13179982,
0.04567332,-0.18023959,-0.19492085,0.07715441,-0.10470410,-0.18962637,-0.08504306,0.14259852,0.14547478,0.11470848,
-0.16413169,-0.06752219,-0.09751073,0.12370590,0.11804093,-0.06023651,-0.06489573,-0.02055805,0.16146207,0.05379695,
-0.39033273,-0.28194106,0.13210149,-0.06774779,-0.01950618,-0.07955249,-0.43602848,0.15048161,0.30498505,0.15286840,
0.23321766,0.57854867,-0.48957613,-0.09150485,-0.15272406,0.23031199,0.03776904,-0.64152002,-0.12151845,-0.29988784,
-0.19786635,-0.60514832,0.05462021,0.15562192,0.03846593,-0.20454116,0.01914147,-0.12027889,0.22289951,-0.23060969,
-0.00472431,-0.01802530,-0.11286934,-0.79762608,0.12369797,-0.11891403,-0.20361379,-0.12854560,-0.39409342,0.18875362,
-0.03304315,0.10299513,0.01123166,0.01171513,-0.00013351,-0.09795672,0.02094913,-0.18173316,0.09363888,-0.17258126,
0.01393859,-0.31905740,-0.14401424,-0.34181112,0.00790994,0.12716192,0.01615352,-0.25521106,0.38366228,0.22647989,
0.25981712,-0.23217982,-0.02065574,-0.47726417,-0.55593705,0.00319080,0.08698218,0.21862902,-0.27508986,0.19774276,
0.10536600,-0.51572204,0.11956209,-0.17131624,-0.08031053,-0.33583608,0.17240839,-0.04090633,0.23849674,-0.13181730,
-0.46794894,0.40775344,-0.23844929,0.04678752,-0.13230906,-0.11289783,-0.45377275,0.45090398,-0.63407910,-0.28511834,
0.16429794,-0.07666752,-0.27885038,0.23495488,-0.46296757,0.26016769,0.24563469,-0.70875520,-0.48749456,-0.30547598,
-0.19078326,-0.14483424,0.04363712,-0.09106905,0.02681608,-0.06858508,-0.16240083,-0.25713533,-0.11226234,0.01335125,
0.25280032,-0.51522267,-0.42489627,-0.39827117,0.05690654,0.21340601,0.29144922,-0.33070761,-0.08634905,0.12022599,
-0.05311155,-0.01415217,-0.77411407,-0.50759435,-0.54125011,0.13077490,-0.35542560,0.09383239,0.50037891,-0.08281883,
-0.01906785,0.10901577,-0.20177329,-0.13792659,-0.27729124,-0.70315242,0.13022447,-0.93308657,-0.23659205,-0.38504106,
0.14148317,0.11763456,0.08026771,0.19408140,0.13157229,-0.50295281,-0.01644844,-0.48205385,0.01167805,-0.35647285,
0.01710309,-0.46091595,-0.01029313,-0.27570120,-0.04487618,0.16385278,0.12717527,0.05525021,0.06842402,-0.02379446,
-0.15926807,-0.11273073,-0.32737285,-0.16449018,-0.16062412,0.11546331,-0.22923234,-0.57455105,0.39059201,-0.29238701,
0.15605815,-0.50940812,-0.65581959,0.04191470,-0.29380506,0.48857322,0.17058511,-0.53349757,-0.07480695,-0.60913885,
0.03597752,-0.21491964,0.06351893,-0.00473402,0.01759221,-0.19935729,0.01977220,-0.07318223,0.12393364,-0.05633088,
0.05898938,-0.40286091,-0.02044660,-0.15564388,-0.16073038,-0.29805380,0.06828362,0.11311311,-0.50024545,0.06216509,
-0.59522206,0.53253257,-0.33447567,-0.19985454,-0.72984511,-0.07759861,-0.92551917,0.06546243,0.10014352,0.05401906,
-0.24190645,0.31133401,0.06214136,-0.09946837,-0.29707634,0.28396550,0.23821333,-0.66657287,-0.29747868,-0.10561387,
-0.56905633,-0.81550080,-0.15287066,-0.12403554,-0.13073288,0.48032176,-0.19363333,0.11704749,-0.11571189,-0.78489488,
-0.10819007,0.43992290,-0.06541863,-0.25818011,-0.01904523,-0.12156398,-0.11544208,-0.02849566,-0.44855818,-0.17378765,
0.07123530,-0.75899768,0.23188558,0.27623785,-0.28352153,0.08437063,0.07765388,0.10611830,-0.26811057,-0.42663521,
0.15801354,0.16574183,0.04371630,0.06247421,0.12346032,-0.08736433,0.16036075,0.09104105,-0.48205787,0.20211467,
0.17911758,-0.06040774,0.10373288,-0.18641783,0.19089787,-0.18131442,-0.01284507,-0.01174897,-0.20381713,-0.00757522,
0.32369867,-0.75967425,-0.45695949,-0.12988238,0.13554165,-0.14079711,0.18915479,0.13745844,-0.06341379,0.07665115,
0.17308830,0.00882223,0.04336715,0.17552957,0.17856430,-0.61656517,0.10422469,-0.48497680,0.01394724,-0.62912995,
-0.42556632,-0.62802124,0.06847858,0.14841340,0.11072423,0.13117848,-0.02849063,0.14619894,0.34534708,0.15875046,
-0.07156134,-0.06161166,-0.01237150,-0.05994546,0.04054451,-0.17936544,0.04532998,-0.29471833,0.19519272,-0.07399386,
0.11994816,0.01367068,-0.15018706,0.13727593,0.03914860,-0.14874794,-0.08871309,-0.15207389,0.12630369,-0.16300853,
0.27448162,-0.41353929,0.42365298,-0.35974991,0.10216013,0.17221835,-0.24239014,0.33132905,0.15125519,-0.38800532,
0.00543359,0.42333010,0.20647685,-0.22552179,-0.03333426,0.07919269,-0.06345378,-0.80973011,-0.34927654,0.35972929,
0.15602446,-0.16383621,-0.15319346,0.10875238,0.13711107,-0.22893009,-0.19190837,-0.12438717,-0.13932715,-0.12051163,
0.04354715,-0.12784943,0.02625536,-0.55301613,0.10885100,0.16671242,0.33038694,-0.08499655,-0.07072784,0.07998013,
-0.05428480,0.48083007,0.15048873,-0.06487940,0.11551716,-0.06146971,-0.21632083,-0.13422056,0.33940572,0.10512208,
-0.13739450,-0.16452566,-0.24949858,-1.09264636,-0.57374483,-0.04358936,0.04945854,-0.23122106,0.36819804,0.38045782,
-0.09145929,-0.03613102,-0.02425353,-0.81836778,-0.39452755,0.18578161,-0.67660326,0.34113643,-0.64835465,-0.36234906,
-0.50439870,0.09482580,-0.36157605,0.31294903,0.16107517,0.58274162,-0.37030122,-0.95771575,-0.32000184,0.06468128,
-0.62001365,-0.14317545,-0.31083837,0.62076324,-0.48331544,0.06533495,-0.30376542,0.46165833,0.16370913,-0.14350024,
0.14558809,-0.45545250,0.08553626,0.08254688,0.07382174,-0.40360978,0.13452524,-0.03291155,-0.00287749,0.04382879,
-0.50633508,-0.53789812,-0.42047715,-0.07568736,-0.16713831,0.02858896,-0.40159342,0.14454517,0.08930199,0.20296833,
-0.37701514,0.31658661,-0.24610795,-0.07144342,-0.28224701,-0.45353746,-0.10043098,0.41810369,0.55033016,-0.10642411,
-0.10388988,-0.11380422,0.04939755,-0.19888422,-0.08583842,-0.35321376,-0.22101338,-0.49439064,0.55408150,-0.38898885,
0.04125896,0.17347983,-0.02972263,-0.06875447,0.14973316,-0.12453289,0.18141511,0.05824688,-0.08566950,-0.06266097,
-0.44623828,-0.19175866,-0.32771972,0.31644553,0.09875520,-0.32682380,0.32877797,0.05475195,-0.16715057,0.15401040,
0.14206432,-0.20213886,0.08719162,-0.04797853,0.14296913,0.16307306,-0.03253476,-0.12548536,-0.07303637,-0.50859642,
-0.26258957,-0.53559750,-0.16056003,0.42604470,-0.26956984,-0.26218185,-0.29854944,-0.48183763,0.74097961,-0.21879451,
-0.49961871,0.44749641,-0.21556988,-0.17240457,0.10365178,-0.20293787,-0.13475975,0.20208572,-0.26746589,-0.19004402,
0.05086591,0.29935214,0.08962768,-0.26012745,0.09856906,-0.86511886,0.09523667,-0.15361314,0.27429646,-0.92437512,
-0.22723177,0.07010884,0.28356206,0.11164913,-0.03289439,-0.13516340,-0.13711263,-0.21774870,-0.12802759,-0.51101619,
0.02622503,0.26323003,0.03332471,-0.08434760,0.06993321,-0.57114643,0.04489886,-0.05863350,0.13599080,0.02126194,
-0.03989623,-0.28199819,0.09732371,0.07994802,0.07749721,-0.77835035,-0.02801303,-0.11215448,0.04577667,-0.58095193,
0.02010909,0.16788183,-0.02771194,-0.14182796,0.16411936,-0.19369785,0.18522434,0.11724735,0.12483518,-0.03412034,
-0.48908377,-0.06725545,-0.26248831,0.18345180,-0.01059720,-0.17562644,0.20253997,-0.00753911,-0.48451018,0.15338109,
-0.38210732,0.33517405,-0.02275453,-0.06333458,0.03006482,-0.44858140,-0.43935367,0.55084056,-0.13458647,-0.47901654,
-0.37456703,-1.11059189,0.50515646,-0.45064098,-0.15659538,0.76472718,-0.43554893,0.02371314,-0.12716806,-0.53643620,
-0.15885057,-0.43147790,0.06655359,-0.21993671,0.06412113,0.05043602,-0.01959452,-0.05372539,0.27046317,-0.02008611,
-0.30822879,0.60962653,0.02763370,-0.24619217,-0.04469850,0.12565781,-0.15433611,0.14603610,0.35141680,-0.32969868,
-0.42917359,0.70301086,-0.11521097,0.28506038,-0.02815466,0.10278286,-0.02401690,0.26706174,-0.16783677,-0.29893994,
0.28600559,-0.10285550,-0.13477212,-0.19516984,-0.05690480,-0.26308835,-0.10506813,0.07022528,-0.13055128,-0.09272877,
-0.32575083,-0.37388608,-0.34988123,-0.13142654,-0.45039070,-0.17958497,-0.13158534,-0.08047264,0.30259860,-0.03578137,
-0.27223980,0.12223461,-0.25957400,0.07953559,-0.30273423,-0.05502757,0.31998527,0.19788514,-0.37076107,-0.18843301,
-0.05894112,-0.17170228,0.11496272,0.10847218,-0.24364147,-0.21477915,-0.03375150,0.02443733,0.02106689,0.16447800,
-0.31699491,-0.54985744,0.05706227,-0.10824784,0.14262547,-0.69419867,0.11430334,-0.86636364,-0.36465716,-0.01872192,
0.03880437,-0.14352435,-0.28625026,0.01320263,0.06463180,-1.36330914,0.10969926,-0.03572659,-0.51917225,-0.14392968,
-0.02971303,-0.90742981,-0.38966140,-0.36714840,-0.32303455,0.04891054,0.55777776,-0.27464840,-0.40823632,-0.38879576,
0.22609079,0.17497520,-0.70303613,0.21652795,-0.29029053,-0.43750879,0.00915384,0.06479046,-0.22854353,0.14893396,
-0.22432831,-0.35950857,0.17007621,0.02606806,0.19256486,0.15434952,0.09299131,-0.19716762,-0.48346937,-0.20751415,
-0.22558464,-0.37963867,-0.40562692,-0.61853778,-0.07866842,0.64961118,-0.62739587,-0.13099928,-0.18270309,-0.56348848,
-0.10940448,-0.24538592,0.07094058,0.14560282,0.13043514,-0.14085969,0.10634731,0.07451764,0.15535571,-0.08700756,
-0.03604880,0.19123992,0.11002212,-0.00737514,0.13815726,-1.13996255,0.10552327,-1.12184691,-0.37776113,-0.27663186,
0.31695595,-0.91514051,0.35244879,-0.57587481,0.06030714,-0.25517413,-0.16813411,0.22971295,-0.15492474,-0.21753050,
-0.48306131,-0.26324099,-0.36741027,-0.53754228,-1.08688688,0.37122938,-0.70294100,-0.70201594,-0.53357607,0.53402150,
-0.15043612,-0.34260964,0.09807166,-0.23507814,-0.47124603,0.38039410,0.15073681,-0.46443728,-0.11870041,-0.36484009,
0.20120673,-0.47016338,0.24638972,-0.64743096,-0.11343082,0.23402885,-0.13474524,0.08965115,-0.38369042,-0.69609690,
0.02768037,-0.33855867,-0.00569740,-0.01757973,0.12990101,0.24028705,0.17606431,-0.35367468,0.02932529,-0.44743899,
0.10497935,-0.52539152,0.36256817,0.07873050,-0.36723849,0.37303272,-0.28452682,-0.00121680,-0.57702625,-0.37126797,
-1.12505364,-1.36549973,-0.50550628,-1.23697472,0.32338330,0.29049131,-0.53662378,-0.04061504,-0.83596504,-0.06325244,
-0.01610821,-0.28959456,-0.11134172,-0.16906707,-0.12826931,0.12974468,0.09663390,0.01209184,0.08149398,-0.16576409,
-0.02581923,-0.57822847,-0.11253492,0.16582797,-0.03445447,-0.30909774,0.06536403,-0.03350261,0.17707871,-0.01230698,
0.15835865,0.16843677,-0.37562564,-0.06587232,-0.52814376,0.31264818,-0.05550732,-0.18616606,0.39997542,-0.55057293

};
#endif
